#ifndef MODEL_WEIGHTS_H
#define MODEL_WEIGHTS_H

// =================================================================
//  Fichier genere automatiquement par export_weights.py
//  Contient les poids du reseau de neurones pour l'inference C.
//  NE PAS MODIFIER MANUELLEMENT !
// =================================================================

// --- Couche 1 : Entree (784) vers Cachee (128) ---
// Dimensions attendues
static const int L1_IN_DIM = 784;
static const int L1_OUT_DIM = 128;

// Tableau plat des poids (Matrice 784x128 aplatie)
static const float LAYER1_WEIGHTS[100352] = {
    0.03817380f, 0.04011500f, -0.03873506f, -0.04243628f, 0.07084931f, 0.01890895f, -0.07198964f, 0.00872359f, 0.00517170f, 0.01032323f, 0.00548890f, -0.00352785f, -0.05954019f, -0.04218205f, 0.03081005f, 0.01129536f, -0.02821048f, -0.01876504f, 0.00669871f, -0.05766033f, -0.02396762f, 0.05152483f, -0.00948016f, 0.03201384f, 0.02629635f, 0.04079308f, 0.06513301f, -0.03036508f, 0.07684796f, 0.07046167f, 0.07154007f, 0.01338580f, -0.05348773f, 0.00064454f, 0.00212011f, 0.03510448f, -0.05184326f, -0.00886201f, -0.06842809f, 0.05524538f, -0.06812945f, 0.01821423f, -0.07534467f, -0.00815018f, -0.05306754f, -0.05234632f, -0.02153022f, -0.04090805f, 0.04881277f, 0.03721097f, 0.01738983f, 0.00764269f, -0.07492568f, 0.07762203f, 0.07133845f, -0.04448834f, -0.07562377f, 0.03580121f, 0.03890661f, -0.03874212f, -0.05443971f, 0.01381873f, 0.06136230f, 0.00820155f, 0.05266092f, -0.05712114f, 0.01068339f, -0.05491455f, 0.07565511f, -0.03948759f, -0.06224502f, -0.02643723f, -0.05872771f, 0.06219056f, 0.06406922f, 0.06278425f, 0.05905857f, -0.04846799f, 0.03234963f, 0.05887058f, 0.05187646f, -0.00990624f, -0.00504004f, -0.03007694f, 0.00175955f, 0.04107861f, 0.03850399f, 0.03523910f, -0.06147562f, 0.03680275f, 0.03047188f, 0.01984613f, -0.03219788f, -0.03976018f, -0.04905421f, -0.04192106f, 0.03707775f, -0.02271314f, 0.01870696f, -0.03546441f, 0.02561250f, 0.04396474f, 0.04096933f, -0.04400500f, 0.01239241f, 0.00423859f, -0.02140249f, -0.02959622f, -0.02088653f, -0.01639227f, 0.03911947f, -0.05161411f, 0.00094224f, -0.00665712f, 0.06794738f, -0.00059239f, 0.03527169f, 0.07113583f, -0.00413876f, -0.08108729f, 0.03735245f, -0.04200197f, 0.02612574f, 0.05453732f, -0.04725232f, -0.03293680f, -0.07489046f, -0.07805963f, -0.01534478f, -0.07038845f, 0.06728900f, 0.01803867f, 0.01165040f, 0.01671989f, 0.00103232f, -0.06087414f, 0.00503645f, -0.07302970f, -0.01374520f, 0.07477390f, 0.01310565f, -0.03252687f, -0.01816241f, 0.07511123f, -0.06294197f, 0.05797315f, 0.05653223f, 0.07889076f, -0.02772617f, 0.03514848f, 0.06412046f, 0.03173796f, -0.01010741f, -0.01020368f, -0.01190369f, 0.02379779f, 0.06991970f, -0.07764751f, 0.05699059f, 0.05954259f, 0.05380071f, -0.01954601f, -0.05912664f, 0.07507677f, 0.05792014f, -0.02452657f, -0.05137979f, 0.06299252f, 0.04838967f, 0.06431524f, 0.04271136f, -0.06738156f, 0.01485584f, 0.02121667f, -0.01629546f, -0.05485941f, 0.07801013f, 0.05369932f, -0.01801047f, 0.00884393f, 0.06807264f, -0.06409210f, 0.01070866f, -0.06127849f, -0.07608014f, -0.03774853f, -0.06413507f, 0.07917617f, -0.03331115f, -0.07984364f, 0.05481770f, 0.07418466f, -0.05472476f, -0.03467595f, 0.05647881f, 0.02633377f, 0.05277298f, -0.00882521f, -0.05059034f, -0.05327294f, 0.02727474f, -0.06140415f, -0.05257513f, 0.00903340f, -0.06279393f, -0.04145772f, 0.02020023f, -0.04435966f, 0.02962372f, -0.05602990f, -0.01743560f, 0.06580190f, -0.02666926f, 0.03617320f, 0.02156453f, -0.02277168f, 0.04600313f, -0.00051074f, 0.04608350f, -0.06601571f, -0.07463303f, 0.02061358f, 0.02222946f, 0.06711295f, 0.01499039f, -0.05196085f, -0.03137376f, -0.01508597f, -0.02998057f, 0.05953657f, -0.01141588f, 0.05356535f, 0.02857048f, -0.00731856f, 0.03328680f, -0.00130245f, 0.05407918f, 0.06462728f, 0.03871156f, -0.05423993f, 0.06047284f, -0.02010934f, 0.04048073f, 0.08070793f, -0.01669193f, 0.02002433f, 0.03321916f, 0.00788490f, 0.02752378f, -0.02575893f, 0.01113306f, -0.05005684f, -0.08091756f, 0.02115797f, 0.03812316f, 0.07135262f, -0.04628517f, -0.04683560f, 0.07968310f, -0.04842320f, 0.00143148f, 0.05746903f, 0.02880619f, 0.00874364f, 0.03807301f, 0.04747216f, -0.03899390f, -0.03295730f, 0.03586015f, -0.05598266f, -0.06964692f, -0.07037490f, 0.05534004f, -0.02086175f, 0.04814854f, -0.01149225f, -0.01518082f, -0.04762546f, 0.03822679f, 0.03929920f, 0.07471824f, -0.04051192f, 0.06088578f, -0.07593752f, 0.02448683f, 0.05723777f, -0.01548646f, -0.02729530f, -0.07685477f, 0.00335606f, -0.02589309f, 0.00505240f, 0.07073801f, 0.02922278f, -0.00309213f, 0.03070640f, -0.06919679f, -0.07042585f, 0.01618852f, 0.01789442f, -0.06607533f, -0.02094740f, 0.06961790f, 0.04674425f, -0.00164414f, -0.00115444f, 0.04576931f, -0.07217664f, -0.05402274f, -0.05527795f, 0.03581304f, -0.02708820f, 0.03759054f, -0.05575714f, -0.06996170f, 0.00225026f, 0.01805837f, -0.05261789f, -0.03015576f, -0.01414419f, -0.01249070f, -0.06184156f, 0.04608854f, -0.05365564f, -0.01431671f, -0.05988992f, 0.05225372f, 0.01094843f, 0.04016963f, -0.06570566f, -0.01982713f, -0.03863508f, 0.07346421f, -0.03991384f, 0.01547648f, 0.05795874f, -0.07719540f, 0.01697674f, -0.02194858f, -0.03184892f, 0.05881100f, -0.04052018f, -0.05493321f, -0.03849221f, -0.06062946f, -0.07815143f, 0.07804888f, -0.06618376f, -0.01239554f, 0.07007285f, 0.06833521f, 0.02310554f, 0.00962254f, -0.06233136f, 0.03172401f, 0.04000240f, -0.01529694f, 0.01417310f, 0.01963273f, 0.02398525f, 0.00038118f, -0.02149029f, -0.05037492f, -0.01019613f, -0.02436982f, -0.06268970f, 0.07958049f, 0.06896695f, -0.02894541f, 0.04314362f, 0.03635183f, 0.07331308f, 0.01010554f, 0.05657200f, 0.05710164f, 0.06928111f, 0.04430883f, 0.06921761f, -0.00221770f, -0.05114866f, 0.05277584f, 0.00814518f, -0.00104225f, 0.08000987f, 0.06865109f, -0.07022077f, -0.06740169f, 0.02080327f, 0.00836855f, 0.02889076f, -0.00764364f, 0.04343106f, -0.02848292f, -0.03644471f, -0.05817137f, 0.04301710f, 0.02390481f, 0.06934453f, 0.06369489f, 0.05035245f, -0.02070989f, -0.00456454f, 0.05865099f, 0.04187533f, -0.06141194f, 0.01189560f, -0.04544143f, 0.06094948f, -0.01773649f, 0.05767199f, 0.01065848f, -0.02308606f, 0.00243372f, -0.00458975f, 0.02180555f, -0.05020076f, 0.03833168f, 0.00668274f, -0.07769512f, -0.00760809f, -0.07817461f, 0.00921363f, 0.01547826f, 0.01537222f, 0.04128029f, -0.05981518f, 0.07278477f, 0.06548896f, -0.01500383f, 0.05242083f, -0.06688426f, 0.01648383f, 0.00688973f, -0.02888945f, 0.07841609f, 0.06602468f, -0.07239819f, 0.00036024f, 0.04960620f, -0.07559633f, -0.02214943f, 0.07673230f, 0.00896210f, -0.04679677f, 0.06220242f, 0.01288734f, 0.03216174f, 0.07674288f, 0.02502944f, 0.04360131f, 0.07167850f, -0.00765435f, 0.03501410f, -0.05122896f, -0.06044141f, 0.01527445f, 0.02933359f, -0.05257883f, -0.07591698f, 0.06093448f, 0.05790869f, 0.03525966f, 0.05017712f, 0.04924438f, 0.05669741f, 0.05403925f, 0.05010311f, 0.01602544f, 0.02568056f, -0.07460643f, 0.00728226f, 0.00057640f, -0.03812788f, -0.02394760f, 0.00271239f, -0.07549664f, -0.06821541f, 0.00250371f, 0.02417425f, 0.01200104f, -0.06231529f, 0.06699193f, -0.04949895f, -0.02548509f, -0.05497921f, 0.02008006f, -0.05480406f, -0.03497010f, -0.07579829f, 0.04369263f, -0.02722313f, 0.03834883f, 0.07034368f, 0.07258020f, 0.06555707f, 0.05126809f, 0.01656850f, -0.03181960f, -0.08060555f, 0.01630501f, 0.02448314f, -0.03465375f, 0.00691947f, -0.04470261f, -0.02126552f, 0.01948962f, 0.03692343f, -0.03070386f, 0.06742900f, -0.01043993f, 0.05351800f, 0.05568977f, -0.03956378f, -0.06958473f, -0.01740375f, 0.07591496f, 0.04124488f, 0.05459320f, 0.00945254f, -0.04987510f, -0.04652482f, -0.06909428f, -0.02383718f, -0.00744436f, -0.07980128f, 0.03017682f, 0.04580646f, 0.06287495f, -0.01718488f, 0.03997397f, -0.05554416f, 0.06659520f, -0.06859419f, -0.02407696f, -0.07215220f, -0.07079112f, -0.06127327f, 0.00259127f, 0.05775829f, -0.04320724f, -0.03019765f, -0.00797411f, -0.04348526f, 0.04621875f, 0.05792119f, -0.02766439f, -0.01306925f, -0.00374822f, -0.02874269f, -0.02537284f, 0.05914869f, 0.03664325f, 0.05355654f, -0.00634911f, 0.02983076f, 0.04044013f, 0.05889259f, -0.01384640f, -0.06172615f, -0.05783130f, -0.02673207f, -0.08100547f, -0.06488205f, -0.01618060f, -0.05944659f, 0.02761434f, 0.02071047f, 0.04387964f, -0.07658081f, -0.05028118f, 0.01639806f, 0.01493835f, 0.04867407f, -0.06427144f, 0.02135172f, 0.01330881f, -0.06914248f, -0.06335939f, -0.02901859f, -0.06340843f, -0.01829113f, 0.05446870f, -0.03820863f, 0.04620043f, 0.04603007f, 0.03471695f, 0.04198585f, -0.01894568f, 0.06243616f, -0.05690817f, 0.06583229f, 0.05735450f, -0.02537984f, 0.02230348f, 0.01237673f, -0.02720058f, -0.04507986f, -0.07406957f, -0.07588468f, 0.05606752f, 0.03521010f, 0.01497171f, -0.07641214f, 0.08070902f, 0.07418521f, -0.07020830f, 0.06114925f, 0.08009615f, 0.06961560f, -0.03456771f, -0.06573119f, -0.01948250f, 0.00957488f, -0.00727936f, -0.02342390f, 0.05781115f, 0.01461338f, -0.02099815f, -0.01656844f, 0.06868143f, 0.03459258f, 0.00002429f, 0.03666998f, 0.01267695f, -0.03857266f, 0.07929417f, 0.07686663f, -0.03714325f, -0.06389005f, -0.01499756f, -0.06225184f, -0.02249093f, 0.03596500f, 0.00829189f, -0.00308982f, -0.05679721f, 0.01160329f, 0.07561047f, 0.06738784f, 0.06694173f, 0.01975759f, 0.06959338f, -0.04106954f, -0.01190002f, -0.05369699f, -0.05811890f, 0.07466929f, 0.03444250f, -0.07423486f, 0.06636596f, 0.00133228f, 0.05790525f, 0.00683095f, 0.04638832f, -0.03522150f, -0.07257039f, -0.06011897f, -0.00596246f, -0.05753632f, -0.00134324f, -0.02323918f, 0.05304418f, 0.06824989f, -0.04643282f, -0.02968501f, 0.05178339f, -0.06680773f, 0.04173829f, 0.06054748f, -0.06862190f, -0.02552967f, 0.04582498f, 0.01023342f, 0.00489081f, 0.02241228f, -0.07175801f, -0.01984970f, -0.00880146f, 0.01488852f, -0.01619658f, 0.04310590f, 0.01393230f, -0.02571787f, -0.05542200f, 0.00067123f, 0.03151540f, 0.02226350f, 0.00304627f, 0.00223561f, -0.02652731f, 0.04843702f, 0.03076795f, -0.03073397f, 0.04874951f, 0.05558527f, -0.04568228f, -0.00402130f, -0.05456804f, 0.02947712f, -0.01396618f, 0.05275833f, 0.03408714f, 0.04906187f, -0.00844456f, -0.03464698f, 0.01381230f, 0.06401507f, -0.04799702f, -0.05503545f, -0.06212334f, 0.01680630f, -0.00547249f, -0.02889708f, 0.03139782f, 0.04317717f, -0.03105982f, 0.06656840f, -0.08051664f, 0.06891000f, 0.08019070f, -0.03165488f, -0.01728272f, 0.07575042f, 0.02093013f, 0.05751335f, -0.00467776f, 0.06550468f, 0.01931850f, -0.06819335f, -0.06358474f, 0.06814943f, 0.01244563f, -0.05838279f, 0.02959243f, 0.04718909f, -0.01603234f, -0.03217822f, -0.07437035f, -0.02895704f, -0.00371344f, -0.06061863f, 0.00750854f, -0.06747869f, 0.03147316f, 0.04550508f, -0.02509750f, 0.02789035f, -0.07662347f, 0.07553247f, 0.06550673f, -0.02438289f, 0.02836636f, -0.08087143f, -0.02034383f, -0.01727038f, 0.00309101f, -0.06511449f, 0.02099791f, -0.07473499f, -0.03276898f, -0.03966262f, -0.01412247f, 0.07797017f, 0.05957947f, -0.05921453f, -0.06402493f, 0.03185484f, -0.07944806f, -0.07485357f, -0.07160984f, 0.04982477f, -0.07502711f, 0.00414190f, -0.06874783f, 0.07415202f, 0.04678772f, 0.03765664f, 0.05528713f, 0.00537750f, -0.04716826f, 0.08011287f, -0.01489890f, 0.07281641f, -0.05089342f, 0.06636537f, 0.07576404f, 0.00158709f, -0.03147297f, -0.00990777f, 0.04304818f, 0.00759614f, -0.05140917f, 0.05708747f, 0.05881640f, -0.03843414f, -0.06227161f, 0.01580249f, 0.00759968f, 0.04807412f, -0.06449706f, 0.03623481f, -0.01325610f, 0.04312340f, 0.07976269f, 0.04960117f, 0.06498817f, 0.04852173f, -0.03225860f, -0.02153385f, -0.07825640f, 0.04681773f, -0.00368269f, -0.05773028f, -0.04954544f, -0.05443066f, -0.06976692f, -0.01109363f, -0.00880244f, -0.00397395f, -0.05388449f, 0.07552046f, 0.04065935f, -0.02678325f, -0.04973989f, 0.07406426f, -0.02047199f, 0.00445210f, 0.00084131f, 0.03060056f, -0.05548647f, -0.07087351f, -0.04437476f, -0.07860313f, -0.03000132f, 0.08048571f, 0.04113939f, 0.00963069f, 0.05655492f, 0.01585936f, -0.01514927f, -0.03210206f, -0.01301023f, 0.03806005f, 0.00302055f, -0.06799106f, -0.04802760f, 0.03631493f, 0.06975470f, 0.07475293f, 0.00992666f, -0.05707378f, 0.05516935f, 0.04892459f, -0.06896873f, -0.07941298f, 0.07726528f, -0.06651022f, 0.01484136f, 0.02379373f, 0.02443319f, -0.07263818f, 0.04226150f, -0.02927925f, -0.05768555f, 0.07922351f, -0.04178521f, -0.05516735f, -0.03734808f, 0.06698217f, 0.07902782f, -0.06543276f, 0.02614049f, -0.07275109f, 0.03890539f, -0.00395340f, -0.01584060f, -0.07303850f, -0.01278196f, -0.03767799f, 0.03548265f, -0.00805689f, 0.00836401f, -0.07593290f, 0.01723151f, 0.01797340f, 0.07064550f, -0.04957342f, -0.02853776f, -0.03565926f, -0.05123841f, -0.03732375f, 0.00709903f, -0.04444318f, -0.06576503f, -0.03127382f, 0.06361782f, -0.01870006f, -0.00668183f, -0.04616557f, -0.08026193f, -0.02192348f, 0.04147714f, 0.04118679f, -0.03318158f, 0.01685930f, -0.01250863f, -0.01867262f, -0.03530876f, 0.04481924f, 0.06828823f, 0.01690193f, 0.01042294f, 0.02733956f, -0.03329048f, -0.00608085f, 0.02980411f, 0.07731537f, 0.00879386f, 0.04415042f, -0.06102763f, 0.01644906f, 0.05368919f, -0.07835351f, 0.01853808f, -0.02125380f, -0.05268035f, -0.01588282f, 0.04553100f, 0.00892704f, 0.05899655f, 0.06996653f, 0.03641050f, -0.00819963f, 0.07777327f, -0.07654904f, -0.04030678f, 0.01894022f, 0.05846117f, -0.07829399f, -0.07797228f, -0.00968917f, -0.04991671f, -0.06806041f, -0.05271216f, 0.02321596f, -0.01664190f, 0.05809241f, 0.05637259f, 0.07719662f, -0.04604879f, 0.02433379f, 0.01284985f, -0.02277561f, 0.07385368f, -0.05855465f, 0.03581250f, -0.06312988f, -0.03643516f, 0.03399271f, 0.00918525f, 0.08061159f, 0.00863635f, 0.06673402f, -0.06328606f, -0.03705472f, -0.05076787f, 0.04313984f, -0.06190041f, -0.06813902f, 0.06651039f, -0.04461779f, 0.04324289f, 0.04777872f, 0.08032954f, 0.07800870f, 0.05968227f, 0.07142503f, -0.07249904f, -0.08067024f, -0.04143123f, -0.02606049f, 0.00086673f, -0.04592989f, -0.06444616f, 0.05470549f, -0.03191249f, 0.05590970f, 0.00578707f, -0.05166125f, -0.03178222f, -0.05335721f, 0.07976740f, 0.02255204f, 0.06981600f, 0.00625008f, 0.06453914f, 0.00119226f, -0.02955039f, 0.00931035f, 0.01106519f, 0.06333432f, 0.01420970f, 0.04690609f, 0.02672622f, -0.08095997f, 0.03843185f, -0.06005043f, -0.06834818f, -0.01535815f, -0.06716159f, -0.03348732f, -0.03676213f, 0.02768076f, 0.06231817f, -0.07290612f, -0.07582486f, -0.03391037f, 0.01718846f, -0.03729838f, -0.01896022f, -0.06348969f, 0.07104791f, 0.01513416f, 0.04098424f, 0.03083629f, -0.03955315f, 0.06896590f, 0.01740658f, -0.06274201f, -0.04021453f, 0.01336516f, 0.04096728f, -0.05575280f, -0.00980029f, 0.02483015f, -0.01999041f, 0.04788337f, -0.06753893f, 0.06553679f, 0.07760949f, -0.00420761f, -0.06104277f, 0.04918494f, -0.05568695f, -0.05747557f, -0.07241818f, 0.05545581f, -0.01181757f, -0.01939560f, 0.07082262f, 0.02451012f, 0.02709646f, 0.01412143f, 0.05619351f, -0.07309262f, -0.07783230f, 0.06821705f, 0.06149726f, -0.06926621f, 0.05069568f, 0.06583541f, -0.05713000f, 0.01892572f, -0.03037016f, 0.04339888f, -0.03812337f, 0.00727306f, 0.07403550f, -0.02102588f, 0.06721281f, 0.07020562f, -0.04852107f, 0.03934540f, -0.04393894f, -0.07474048f, -0.01546294f, 0.04992395f, 0.05410419f, 0.07959095f, -0.01457114f, 0.05543863f, -0.06331036f, -0.05254897f, -0.02532114f, 0.04721867f, 0.02588432f, 0.06377617f, 0.04035118f, 0.03099622f, -0.07306766f, 0.05358457f, 0.03776791f, -0.08004890f, -0.07953814f, -0.04572945f, 0.05814714f, 0.07491068f, -0.01611277f, -0.01805142f, -0.01232444f, -0.00417644f, -0.02573810f, 0.06260542f, 0.03642698f, 0.06523911f, -0.05614448f, 0.07160597f, 0.05522468f, -0.00050048f, 0.06328722f, -0.00836393f, 0.07955491f, -0.01416258f, -0.07397451f, -0.05812250f, 0.07074036f, -0.02066793f, 0.04748260f, -0.03537095f, 0.04172698f, 0.06032761f, 0.06455397f, -0.05398412f, -0.06581905f, 0.00123110f, -0.04888744f, 0.03758254f, 0.08053286f, 0.01124185f, 0.05810190f, 0.00999346f, -0.05125680f, -0.08041103f, 0.06187110f, -0.07590140f, -0.03454294f, 0.00094883f, -0.07498288f, -0.07814932f, 0.02243693f, 0.05674378f, -0.04434013f, 0.04237337f, 0.07952561f, 0.05342909f, -0.07778141f, -0.05296296f, 0.04796820f, -0.00868152f, 0.03123959f, -0.02558472f, 0.08001392f, 0.06767385f, 0.01159663f, -0.04354426f, -0.07535370f, -0.01806045f, 0.07113425f, -0.04863041f, 0.02656758f, -0.07409694f, -0.01926278f, 0.05429348f, -0.04108283f, 0.00418558f, 0.05430498f, -0.02850053f, -0.03654865f, 0.05400018f, -0.04628007f, 0.04134312f, 0.07891165f, 0.00779067f, -0.06902371f, -0.00851465f, 0.01266738f, -0.05882550f, 0.05808135f, 0.02304184f, 0.04231009f, -0.05967446f, -0.02630517f, 0.06941902f, -0.02280657f, -0.02110860f, 0.07968559f, -0.05762175f, -0.03261410f, 0.00268731f, -0.07691615f, -0.03341173f, -0.07903200f, -0.02979380f, 0.03991458f, 0.07370596f, -0.04661401f, -0.02403300f, -0.03759006f, -0.00357815f, -0.03744693f, -0.05971245f, 0.06400215f, 0.00919720f, 0.05814149f, -0.04091791f, 0.03019606f, 0.03676729f, 0.07564329f, 0.01883604f, -0.03652779f, 0.02058630f, -0.01246587f, 0.06898167f, 0.04699758f, 0.03326926f, -0.04217476f, -0.02461773f, -0.07444976f, -0.04741304f, -0.02333984f, -0.01806127f, 0.03149478f, 0.05256421f, -0.06681938f, -0.05230869f, -0.07629228f, -0.04682878f, 0.07374542f, -0.07763912f, -0.04325837f, 0.07011033f, 0.02622476f, 0.07908852f, -0.06434446f, 0.05561044f, -0.02419001f, 0.00507845f, 0.06041946f, 0.01990516f, 0.02505971f, 0.06059294f, -0.06763578f, -0.00923352f, -0.07939082f, -0.02747069f, 0.02985671f, -0.07606674f, 0.05100014f, 0.05872799f, -0.04452785f, 0.02617068f, 0.07542334f, -0.05731275f, -0.00182306f, 0.04546127f, -0.07981087f, 0.04819568f, 0.03804273f, -0.08059521f, -0.06213661f, 0.02204596f, -0.06697223f, 0.00973268f, -0.07086822f, 0.02420767f, 0.07510255f, -0.00437722f, 0.02291643f, 0.02541211f, 0.01764011f, 0.04902311f, -0.03744910f, 0.02864201f, -0.02473786f, 0.00276582f, -0.04844569f, 0.00435104f, -0.07854632f, 0.00144181f, -0.00782184f, -0.01016156f, 0.02720669f, -0.05688682f, 0.00206193f, 0.07315717f, 0.04611120f, -0.02835472f, 0.01820701f, 0.05648655f, 0.05131698f, -0.05642798f, -0.00844782f, -0.07387441f, -0.05134444f, 0.06415359f, 0.02289206f, -0.01303662f, -0.03824839f, 0.04292099f, -0.03432247f, -0.07781221f, -0.01809160f, -0.02302546f, -0.07091784f, 0.06118274f, -0.05923679f, 0.02659457f, 0.01950602f, -0.07426652f, -0.04704840f, 0.04941268f, -0.06026588f, 0.04472712f, 0.07211677f, -0.03833735f, 0.03805300f, -0.01323503f, -0.03849395f, 0.00765102f, 0.05471886f, -0.02383615f, -0.05590028f, -0.02315218f, 0.06967505f, 0.02135720f, -0.02719365f, 0.06843815f, -0.04078772f, 0.01829558f, 0.05451680f, 0.04049734f, 0.06674107f, -0.06040320f, -0.04096732f, 0.07732002f, 0.00289943f, 0.07658992f, 0.06028158f, 0.01635556f, -0.04339006f, -0.03258653f, 0.03762002f, 0.02270105f, -0.00470749f, -0.03005224f, -0.01840196f, -0.06788558f, -0.01030099f, 0.00605585f, 0.07082880f, 0.03646915f, 0.04349621f, -0.03519433f, 0.05914737f, 0.02293544f, -0.05565545f, 0.04540076f, -0.04075280f, 0.06814102f, 0.05140875f, -0.05707663f, -0.02296264f, 0.02621883f, 0.06899383f, 0.06027063f, -0.07349585f, 0.02112657f, 0.04499785f, -0.04048875f, -0.07492595f, 0.03478289f, -0.00845960f, 0.02426707f, -0.05714568f, 0.04477031f, 0.02120437f, 0.04506540f, 0.02556001f, -0.04880579f, -0.08060161f, 0.07771248f, -0.00600899f, -0.07791906f, 0.02188808f, 0.02969750f, 0.00164761f, -0.06042532f, -0.03260822f, -0.02588596f, -0.06086430f, 0.03955583f, 0.01947214f, 0.04358534f, 0.05378307f, 0.02188231f, 0.00521026f, 0.02078782f, 0.03509919f, -0.01736066f, -0.02184122f, 0.00821460f, -0.06572908f, -0.05754032f, -0.00318303f, -0.04173453f, 0.05911704f, 0.02959470f, -0.01379780f, 0.04116256f, 0.03194539f, 0.06812657f, 0.03188562f, 0.01236448f, -0.05740211f, 0.05105696f, -0.06801808f, 0.00499168f, 0.05935400f, -0.00425305f, 0.06954513f, 0.07164366f, 0.03034974f, 0.07845180f, 0.05462963f, 0.04889724f, 0.00127643f, 0.03181551f, 0.00214073f, 0.03315685f, 0.06746665f, 0.03629053f, -0.00295854f, 0.04216096f, -0.07830967f, 0.06427442f, -0.04169594f, -0.00193691f, -0.05635167f, 0.04044688f, 0.04773197f, 0.03599467f, 0.00507045f, 0.05109107f, -0.02494192f, 0.01146831f, 0.07949074f, -0.03164825f, 0.00167557f, -0.07016797f, -0.08059905f, 0.03190444f, -0.00718234f, 0.06982113f, -0.03501431f, -0.04568408f, -0.01815967f, -0.03906035f, 0.03308139f, -0.02287379f, -0.05593383f, -0.05228487f, -0.05950534f, -0.01147490f, 0.06200173f, 0.03429344f, -0.02361431f, -0.07471611f, 0.01536993f, 0.06352053f, 0.02751213f, -0.05724102f, -0.07188556f, -0.05317359f, -0.03384748f, -0.03851093f, -0.03913797f, -0.04428873f, 0.04890227f, -0.06854311f, -0.07360157f, -0.06395636f, -0.06965290f, -0.07663223f, -0.02848464f, -0.08106580f, 0.05583642f, 0.00627309f, 0.02073742f, 0.00164407f, -0.00484469f, 0.03959103f, 0.05539591f, -0.00223767f, 0.02761149f, -0.05646797f, -0.02645663f, 0.07251851f, 0.05400538f, 0.00189502f, 0.02652963f, -0.02480212f, 0.04928654f, 0.02164263f, 0.07210623f, 0.02312673f, 0.07017896f, -0.04108845f, 0.03978528f, 0.00823763f, -0.00518558f, -0.06082149f, -0.00976525f, 0.01491635f, 0.05072399f, -0.02307899f, -0.02527696f, 0.00203207f, 0.02355732f, -0.06055562f, -0.05071308f, -0.06211669f, 0.07094496f, 0.04960202f, 0.01208522f, -0.07007794f, 0.00300372f, -0.07163014f, 0.05933730f, -0.05337195f, -0.03613389f, -0.05541581f, 0.05155375f, -0.02148543f, 0.01096522f, -0.04986748f, 0.00755035f, -0.07508367f, 0.04078824f, -0.03067186f, -0.01632156f, 0.06177475f, -0.05599278f, 0.00186823f, 0.01336968f, 0.06683296f, 0.01062388f, -0.04181882f, -0.02013122f, -0.00723621f, 0.02962427f, -0.08618010f, 0.10227115f, 0.06699339f, -0.00506153f, 0.04198458f, -0.02793832f, 0.00406386f, -0.06157857f, -0.03680580f, -0.05217839f, 0.00216619f, 0.01233176f, -0.05481058f, -0.02771232f, 0.03973649f, -0.01799208f, 0.08176488f, 0.02832883f, 0.09654419f, 0.02677917f, -0.06045826f, -0.08243830f, 0.07258161f, -0.10142198f, -0.09253201f, 0.04266973f, 0.05126260f, 0.02579895f, -0.12245616f, -0.06551967f, 0.01783805f, 0.07995331f, 0.06036008f, -0.08664005f, -0.00540651f, 0.04078880f, -0.04237990f, 0.05417220f, -0.07656489f, 0.03900613f, 0.01782896f, 0.00448195f, 0.10094928f, 0.06510797f, -0.01944038f, -0.02235000f, -0.04628752f, -0.01960134f, -0.01137117f, 0.03677442f, 0.02654970f, -0.06888467f, -0.06737869f, 0.13029897f, -0.01830402f, -0.01101353f, -0.02744772f, 0.06605836f, -0.05519203f, 0.03185268f, -0.03825799f, 0.13358554f, 0.05037900f, 0.08332107f, -0.02806332f, 0.07704759f, 0.03637249f, 0.07151899f, 0.07085374f, -0.08378483f, -0.01119773f, 0.06344612f, 0.03485399f, -0.02707120f, -0.05463399f, 0.03093432f, -0.04643411f, -0.01476281f, 0.04379892f, 0.02479812f, 0.05449492f, 0.04266223f, 0.00917276f, -0.10896382f, -0.05020906f, -0.01857014f, 0.08281080f, 0.06685225f, -0.05505692f, 0.04127971f, -0.07131686f, -0.07161265f, -0.05661206f, -0.02910448f, -0.02250213f, 0.05595592f, 0.05998381f, 0.00528082f, -0.05707416f, -0.07221768f, 0.03763982f, 0.04720858f, 0.00054793f, -0.02680824f, 0.03941305f, -0.02233714f, -0.04412129f, 0.08355835f, -0.09499483f, 0.00193806f, -0.04768089f, -0.01284679f, 0.00993352f, 0.07552927f, 0.04338781f, -0.07277791f, -0.04046350f, 0.09949899f, 0.11059647f, -0.05586306f, 0.08635171f, -0.03002295f, 0.06712130f, 0.05373021f, 0.07363368f, -0.00197133f, 0.05600099f, -0.02390540f, -0.09324912f, 0.09213633f, 0.12260589f, -0.02508489f, 0.13903318f, -0.06867512f, -0.04350203f, 0.05293247f, -0.02037834f, -0.03710524f, 0.06841901f, 0.00584625f, -0.06163593f, 0.12677126f, 0.11185680f, -0.01132980f, 0.07179516f, -0.05236558f, -0.03103877f, 0.05228543f, 0.03690780f, -0.11131216f, 0.06818213f, -0.05924304f, -0.05113945f, 0.04127336f, 0.02787475f, 0.10688007f, -0.05380684f, -0.02476700f, -0.01772440f, 0.01961772f, 0.02781554f, 0.06700923f, -0.06134396f, -0.01152360f, -0.00026169f, 0.05747494f, -0.01262167f, -0.02204881f, 0.06587986f, 0.04220103f, 0.08240277f, 0.03378280f, 0.06577229f, -0.04611149f, -0.00017153f, -0.07064950f, -0.02966539f, 0.04681943f, 0.03673196f, 0.08597875f, 0.06190346f, 0.14899486f, 0.00300177f, -0.00607182f, 0.14629091f, 0.04542709f, 0.08472136f, -0.06525551f, -0.03650464f, 0.12462232f, 0.02347346f, 0.07749018f, 0.00052859f, -0.04221344f, -0.06416748f, -0.01282410f, -0.01232316f, -0.08915124f, -0.04164361f, 0.00023422f, -0.07192372f, -0.08205987f, -0.03911532f, 0.03221480f, 0.05952202f, -0.07348162f, 0.01215773f, -0.05855225f, 0.01759074f, -0.04222280f, 0.08415245f, 0.00730424f, 0.05892156f, -0.00427607f, -0.02460497f, 0.01314327f, -0.01391895f, -0.06857432f, -0.00691847f, -0.10136326f, 0.04150107f, 0.03729647f, 0.08481702f, -0.00331404f, -0.04347710f, -0.02669322f, 0.07160901f, 0.07990278f, 0.09726935f, -0.05981087f, 0.08064317f, -0.03141685f, -0.01415004f, 0.06502952f, 0.08007859f, -0.06178165f, 0.07205928f, -0.05304055f, 0.00283269f, -0.04863801f, 0.03289716f, 0.09051474f, 0.04869362f, 0.05856415f, -0.10845577f, 0.05979121f, 0.09767400f, 0.11490258f, 0.06198626f, -0.03752187f, 0.00872107f, 0.06471535f, -0.05379475f, 0.03286266f, 0.11543137f, 0.10489710f, -0.13411108f, -0.05599574f, 0.12188120f, 0.07801003f, 0.04546259f, -0.01234569f, -0.01407914f, -0.01086592f, 0.04306999f, 0.01703349f, -0.11483564f, 0.06310194f, 0.04150140f, 0.03180524f, 0.12867765f, -0.02326522f, 0.05769547f, 0.06749181f, 0.06379088f, -0.05871852f, -0.08524867f, -0.04295900f, -0.11727808f, 0.06900161f, 0.01520883f, -0.02717553f, -0.04143059f, -0.00011593f, -0.02248708f, -0.05078033f, 0.00047667f, -0.03022217f, -0.01666105f, 0.07631250f, -0.08066705f, 0.07241267f, -0.05385061f, 0.01132028f, -0.01763517f, 0.01014257f, -0.02777444f, 0.02396721f, -0.01808537f, -0.01146136f, -0.04133264f, 0.07630134f, -0.03504165f, -0.06833833f, -0.00682212f, 0.04815449f, 0.07151926f, -0.02744259f, 0.01655445f, 0.00541657f, 0.06890249f, -0.06323180f, 0.02095782f, 0.01021362f, 0.02382225f, 0.06591814f, 0.06504341f, -0.05049542f, -0.00179842f, 0.10228441f, 0.07645322f, 0.01341716f, -0.08020632f, 0.04738278f, -0.00305547f, 0.02679672f, -0.06530315f, -0.00359872f, -0.07637811f, -0.08478011f, 0.07921081f, -0.08561093f, 0.03799899f, 0.04827049f, 0.10927440f, -0.03817946f, 0.00625824f, -0.00945165f, 0.04279353f, 0.07105336f, -0.02807070f, 0.06019848f, -0.01482216f, -0.04032635f, 0.06035132f, -0.04170196f, 0.09223270f, -0.10210802f, 0.01263355f, -0.01065612f, 0.01637852f, -0.00602233f, 0.06278657f, 0.04208103f, 0.03817768f, 0.01891414f, -0.05008825f, -0.01180782f, 0.04077339f, -0.02314249f, 0.04400934f, -0.04142945f, 0.03870288f, 0.02742443f, 0.05061781f, -0.01992715f, -0.07650589f, 0.03180889f, 0.13050479f, -0.06162861f, -0.03700957f, -0.06038953f, 0.04430208f, 0.04278062f, 0.01745187f, 0.01987514f, 0.04256377f, 0.03888604f, -0.00632250f, 0.01791477f, -0.06467289f, 0.07785218f, -0.00712151f, 0.04139506f, -0.05411372f, 0.04170130f, -0.05888869f, 0.02508351f, 0.00703286f, -0.00547136f, 0.05922416f, -0.08095111f, -0.03414343f, -0.04187196f, 0.01599813f, 0.06948725f, -0.00279747f, 0.04731978f, 0.09200036f, 0.04459897f, 0.07344347f, 0.02878758f, 0.09625270f, -0.07577877f, -0.02063632f, 0.01724840f, 0.00201450f, 0.06212673f, -0.01686409f, -0.04064292f, 0.00551432f, -0.00582740f, 0.03931163f, 0.03863189f, 0.01451655f, 0.02958808f, 0.05304531f, -0.04073911f, -0.03037587f, 0.07705828f, 0.01705936f, 0.07955419f, 0.06861135f, 0.06945702f, 0.04393399f, 0.01449309f, -0.06264432f, -0.04101777f, 0.03713263f, -0.03945928f, -0.00842499f, 0.01404161f, -0.05047845f, -0.07253080f, -0.00398353f, -0.07690699f, 0.09137664f, 0.09383176f, -0.07303388f, 0.00217051f, 0.08076908f, 0.02282503f, -0.01232865f, 0.04724465f, -0.03175194f, 0.00325918f, -0.07001292f, 0.00311456f, -0.05435845f, 0.00382724f, 0.01074768f, -0.01813416f, 0.06620999f, -0.01066551f, 0.02878649f, 0.01476763f, -0.03955829f, 0.01863637f, 0.05917952f, -0.08043314f, 0.03189035f, 0.02198206f, -0.02045664f, -0.04630002f, 0.01537014f, -0.00613510f, -0.07184399f, -0.01345100f, 0.01206288f, -0.02241272f, -0.06664886f, 0.07571352f, 0.01131808f, 0.03866964f, -0.02693166f, -0.06747255f, -0.06260403f, 0.02390906f, 0.03335421f, 0.01627755f, 0.00302529f, 0.02583864f, 0.04070070f, -0.06421586f, -0.06091399f, -0.01260432f, 0.03233973f, -0.00127965f, -0.04750960f, -0.05798690f, 0.04070798f, 0.00285483f, 0.06548622f, 0.04432330f, 0.01634102f, -0.04960560f, 0.03032125f, 0.04507934f, -0.02837273f, -0.06321636f, 0.04713198f, 0.04549550f, 0.04494333f, -0.02380264f, -0.05611203f, -0.04600444f, 0.03106094f, -0.01075803f, -0.04320903f, -0.00314334f, 0.00364183f, 0.07362662f, -0.05482919f, -0.03074446f, 0.02656297f, -0.07847277f, 0.03981292f, 0.08089115f, 0.06085808f, 0.01357780f, -0.00170440f, -0.01759170f, 0.03249627f, -0.01191419f, 0.05997410f, -0.07408535f, -0.06533164f, 0.01338520f, -0.01197025f, -0.02949903f, -0.05110271f, 0.01867877f, 0.04756535f, 0.07599562f, -0.03749331f, 0.04479461f, 0.00088567f, 0.08064114f, -0.00585832f, 0.04469437f, -0.06942384f, -0.00137843f, -0.06412381f, 0.06797916f, 0.04592267f, -0.04047949f, 0.04359174f, 0.06936855f, -0.00143049f, -0.04805823f, 0.07150131f, 0.00640825f, -0.00690884f, 0.02132243f, 0.02957495f, -0.02016337f, 0.03851526f, -0.01089676f, -0.07667622f, -0.08030790f, 0.05431979f, -0.06165901f, -0.00863933f, -0.05835864f, -0.05328607f, 0.04640511f, -0.06636309f, -0.01547836f, -0.00245678f, 0.06699341f, -0.00179572f, -0.00939953f, -0.07120270f, 0.00314783f, -0.05460318f, 0.03849903f, -0.03433689f, 0.00638856f, 0.02547080f, -0.04262935f, -0.07757700f, 0.02429436f, -0.05308101f, 0.00500356f, 0.04238768f, 0.04692770f, -0.05896068f, 0.06433512f, -0.04121657f, 0.02530672f, 0.07425650f, 0.01498724f, -0.06870109f, 0.07019941f, -0.02147406f, 0.06744572f, 0.02296995f, 0.00484413f, 0.07952031f, 0.03232817f, 0.03633959f, -0.03828570f, -0.00641929f, -0.06721190f, 0.07203237f, -0.00556222f, 0.02717000f, 0.04840188f, -0.03990056f, 0.02083715f, 0.01601750f, -0.07934185f, -0.01627583f, -0.01424556f, 0.08094770f, -0.07669007f, -0.03876492f, 0.05681198f, 0.01547196f, -0.03610838f, -0.05241470f, -0.04136830f, 0.01236864f, 0.05175582f, -0.03178778f, 0.00548560f, 0.06104571f, 0.00722191f, -0.02522637f, 0.04200628f, -0.02719613f, -0.06642768f, -0.00532644f, -0.04606548f, -0.06838129f, -0.05241259f, 0.04102518f, 0.05953530f, 0.07011736f, -0.03326605f, 0.01576100f, -0.06381474f, 0.06846344f, 0.04633003f, 0.00622003f, -0.05482104f, 0.01735818f, -0.04766344f, 0.01969136f, 0.06624430f, -0.02531567f, -0.05368691f, 0.04451709f, -0.04958269f, -0.04425599f, 0.03857844f, 0.06848361f, -0.03765217f, 0.00616752f, 0.07253919f, -0.03197023f, -0.00052875f, 0.04599544f, 0.07200757f, 0.07654013f, -0.00488082f, 0.07950184f, -0.05153564f, -0.01486029f, -0.04390150f, 0.06583878f, 0.04595733f, -0.03917708f, -0.07693982f, -0.07804272f, -0.03958890f, -0.01350078f, -0.05790798f, -0.01169310f, -0.06656632f, -0.04361160f, 0.04984876f, 0.01951431f, -0.04614434f, -0.00460296f, 0.06915785f, 0.02842686f, 0.01913840f, 0.06396758f, 0.05489594f, -0.06575345f, -0.05560573f, -0.00791826f, 0.05891349f, -0.05377328f, -0.00688101f, -0.02448907f, 0.06922733f, 0.01249463f, -0.04326144f, 0.04620147f, -0.02652569f, 0.05851489f, 0.07390996f, -0.07943273f, 0.02491492f, -0.05940045f, -0.04747638f, 0.06161184f, 0.01949223f, -0.02176239f, 0.02792416f, -0.00393515f, -0.05462480f, -0.02825571f, -0.01542620f, -0.05334608f, 0.08037400f, 0.06113643f, 0.03307584f, -0.06354370f, -0.03415378f, 0.07558122f, 0.07334185f, -0.00728263f, -0.04213864f, 0.00861371f, 0.03870849f, 0.02000077f, -0.01205792f, 0.02096073f, 0.05542868f, 0.04341634f, -0.05788245f, -0.03339177f, 0.00952763f, -0.06683986f, -0.01768526f, -0.05825628f, -0.01471894f, -0.04354411f, -0.07017821f, -0.06713917f, 0.06236926f, 0.05862341f, -0.05876772f, 0.07967960f, -0.08010983f, -0.05753427f, -0.04470205f, 0.04173414f, 0.03107323f, 0.00933029f, -0.00795872f, 0.02469551f, 0.04942436f, 0.06903686f, -0.00335154f, 0.00463839f, -0.01822639f, -0.07781363f, -0.08038507f, -0.07578730f, 0.02322692f, 0.03937773f, 0.03813596f, -0.07058191f, 0.07249317f, 0.01675060f, 0.07726035f, 0.01187231f, -0.02958394f, 0.03276326f, 0.02742037f, 0.07370161f, -0.03884113f, -0.07811726f, 0.00294100f, -0.06513187f, -0.03069317f, -0.00412966f, 0.03243832f, -0.06533390f, 0.02527624f, 0.01282831f, 0.03337418f, -0.04958582f, 0.04511324f, 0.00557802f, -0.06309380f, 0.04549768f, -0.01009121f, 0.05210755f, 0.04761510f, -0.05324352f, 0.00063128f, 0.07843613f, -0.03549473f, 0.03462067f, -0.01397303f, -0.04262293f, 0.04353748f, -0.07184660f, 0.05369341f, 0.07686488f, -0.05304430f, 0.00094352f, 0.02533779f, -0.00508617f, 0.05976976f, -0.02074779f, -0.06484812f, -0.03493083f, 0.05884739f, 0.03053405f, -0.04051970f, 0.07482191f, 0.00904760f, 0.05992221f, 0.04101284f, -0.07294320f, -0.02849406f, -0.04350185f, -0.00959661f, 0.02441683f, 0.00137381f, 0.03921415f, 0.06930592f, -0.05515681f, -0.02102304f, -0.02823170f, 0.01360080f, 0.07070462f, -0.04881540f, -0.02998154f, 0.03539042f, 0.03004986f, 0.04201978f, -0.07394647f, 0.01131364f, 0.07937463f, -0.01732017f, -0.02789782f, -0.01157473f, 0.07984456f, 0.04744106f, 0.02458291f, -0.04416454f, -0.06024275f, -0.05068172f, -0.06284549f, -0.01074734f, 0.07709498f, -0.01021165f, 0.01806197f, -0.06071033f, 0.05719490f, -0.04127277f, -0.02821814f, 0.07482820f, -0.04132825f, -0.05004298f, 0.05500703f, 0.06758577f, 0.04475989f, 0.07806376f, -0.06594265f, 0.07802873f, 0.08037744f, -0.00277609f, 0.06494366f, 0.03100515f, -0.03602538f, -0.01040979f, 0.07057460f, 0.05815359f, 0.03957204f, -0.05634871f, 0.02414172f, 0.06094187f, 0.02985288f, 0.04572324f, -0.03729900f, 0.00941832f, -0.01043410f, 0.02775300f, -0.04257909f, 0.01665036f, -0.07517186f, -0.00317480f, -0.01531313f, -0.07247819f, 0.07589131f, -0.01530779f, 0.05424956f, 0.02410393f, 0.00424013f, 0.00598308f, 0.00904236f, -0.00599820f, 0.01237489f, -0.06202669f, -0.01943561f, -0.01476172f, -0.03015947f, 0.00252568f, -0.03336862f, -0.00797018f, 0.07032745f, 0.04037806f, 0.00162067f, -0.02404122f, 0.03183451f, 0.00735609f, -0.03251644f, 0.03291997f, -0.06206393f, 0.00649674f, -0.02993066f, 0.07763226f, -0.01832236f, 0.00783423f, -0.02617816f, -0.00185479f, -0.05872881f, 0.06810216f, -0.02573440f, 0.00195870f, 0.05071489f, -0.00058937f, 0.07107567f, -0.03851495f, 0.03476141f, 0.04953722f, 0.05481491f, 0.02131007f, 0.03089483f, 0.05714113f, -0.07746281f, -0.08080190f, -0.02707499f, -0.07763685f, 0.05968565f, -0.01667513f, -0.04007277f, 0.01635210f, -0.01902804f, 0.06156626f, 0.06148114f, -0.01537163f, 0.01383475f, -0.06280948f, -0.03586932f, 0.01359954f, 0.00289040f, 0.06967989f, -0.06751967f, -0.05980909f, -0.01533156f, 0.04214879f, -0.01774639f, -0.00562679f, 0.04837162f, -0.01377142f, 0.03131704f, -0.00315067f, -0.06866485f, 0.01864488f, -0.02969787f, -0.00601218f, 0.01915410f, -0.00405890f, 0.03936379f, -0.07701540f, -0.00491108f, 0.01882756f, 0.02433313f, 0.06610636f, -0.04321797f, 0.07577880f, 0.03690902f, -0.01790330f, 0.03882059f, 0.05289655f, -0.01374821f, -0.04876997f, -0.02624965f, 0.07584112f, -0.04715749f, -0.06677737f, -0.02478439f, 0.05908344f, -0.05024276f, -0.05772918f, -0.04759115f, -0.05068456f, 0.01566766f, -0.07534281f, -0.02764940f, 0.00556280f, 0.00946245f, -0.03909647f, 0.03324043f, 0.04728445f, 0.03310313f, 0.05607375f, -0.04623478f, 0.06351732f, -0.04956439f, -0.02201304f, -0.02044391f, 0.03646211f, -0.05923002f, -0.05016769f, 0.08002029f, 0.03522293f, 0.02582912f, -0.01267173f, 0.00139482f, -0.03330218f, 0.07684962f, 0.08029786f, -0.07413471f, -0.01926646f, 0.05234870f, -0.05946169f, -0.06986247f, 0.00309697f, -0.05487017f, -0.02309358f, -0.01876625f, -0.06410615f, -0.02903402f, 0.02457026f, 0.00266203f, -0.03509774f, -0.06607924f, 0.00256670f, -0.00057545f, 0.04979389f, -0.01127063f, 0.01078729f, 0.01181068f, -0.01004170f, -0.01389500f, -0.04353726f, -0.06203063f, 0.06943057f, -0.00002651f, 0.03240511f, 0.07250360f, -0.01844657f, -0.04951730f, 0.06043894f, -0.02983327f, -0.08067219f, -0.01295579f, 0.06037361f, 0.00712135f, -0.06285083f, -0.02917674f, -0.07950420f, 0.01798402f, -0.05543550f, 0.05410165f, -0.07883258f, 0.03162447f, -0.01982972f, 0.00576513f, 0.07644529f, 0.03882767f, -0.01404479f, -0.06516218f, -0.01475816f, -0.05636644f, 0.04359284f, -0.01802149f, 0.06190356f, -0.00638957f, -0.06522553f, -0.03054856f, -0.07453725f, 0.01793115f, 0.01988136f, -0.02459002f, -0.06552804f, 0.05879607f, -0.02420896f, 0.02874238f, 0.01931923f, 0.00452983f, 0.04737932f, -0.05342412f, 0.05387240f, 0.01859559f, 0.04145493f, 0.07541641f, 0.06685843f, -0.07056039f, -0.04245378f, 0.06792588f, -0.03478047f, -0.06433579f, 0.05378164f, 0.01919156f, 0.03782993f, -0.07669204f, -0.06697041f, 0.03101917f, -0.05159832f, -0.07272734f, 0.07521055f, -0.02574535f, 0.02535088f, -0.07921169f, -0.05547932f, -0.03114752f, 0.01685806f, -0.03472403f, 0.04674874f, 0.07890484f, 0.01745285f, 0.04949635f, -0.00244690f, 0.07151867f, 0.04381151f, -0.07824667f, 0.06569176f, -0.02671476f, -0.07341822f, -0.05768008f, -0.05779607f, -0.06618781f, 0.05555551f, -0.02756100f, 0.03241468f, -0.05153926f, 0.02373703f, 0.07072618f, -0.07687724f, 0.06635616f, -0.05877652f, 0.01108052f, -0.04095080f, -0.04703303f, -0.07337757f, -0.05704820f, 0.00057932f, -0.04124985f, -0.08067798f, 0.00223707f, -0.07841905f, 0.00791313f, -0.01155438f, -0.00074617f, -0.00350646f, 0.05938474f, -0.04772072f, -0.06384559f, -0.02993960f, -0.00055680f, -0.01297867f, -0.03377825f, 0.04525373f, -0.03287613f, 0.03742702f, -0.00605797f, -0.07956732f, -0.05128179f, 0.07863826f, 0.00777494f, 0.02190169f, 0.08094414f, -0.00327384f, 0.02861349f, -0.00404016f, 0.06695353f, 0.05623481f, -0.05803582f, 0.03541436f, 0.04794141f, -0.00786401f, -0.07563389f, 0.07522298f, 0.07532296f, -0.05585835f, -0.05861303f, -0.03718807f, -0.02036035f, -0.01495514f, 0.00319722f, 0.02011485f, 0.01776041f, -0.00958455f, 0.07383534f, -0.06352904f, -0.03536041f, -0.04975503f, 0.01759358f, 0.04677152f, 0.03270037f, -0.05524363f, 0.04010008f, -0.03077162f, -0.05300067f, 0.04523865f, 0.05214433f, -0.02708878f, -0.05900396f, 0.05391517f, -0.07778031f, -0.05624891f, 0.04132827f, 0.01754831f, -0.02433663f, -0.00119979f, 0.06764839f, -0.03997298f, 0.07080307f, 0.07956285f, 0.06322106f, -0.00493171f, 0.05025541f, -0.03565321f, -0.05194254f, -0.03491294f, -0.05305927f, 0.04828683f, 0.06372572f, 0.00121029f, 0.00615569f, -0.07494133f, -0.03005143f, 0.03578303f, 0.06740142f, 0.04362842f, 0.05269279f, -0.07263647f, -0.04269119f, 0.05948583f, -0.06400536f, 0.03783204f, 0.02342442f, -0.03352503f, 0.03462703f, -0.04276278f, -0.00242210f, -0.03552071f, 0.03164997f, -0.03388786f, -0.02451955f, 0.02303959f, -0.00586788f, -0.07393664f, -0.06461488f, -0.07688751f, 0.03640510f, -0.00774109f, 0.05421335f, -0.02475979f, 0.00717001f, 0.05339276f, 0.02245173f, -0.07602530f, -0.04744857f, -0.00316980f, -0.00891422f, -0.02052231f, -0.03381395f, 0.07770156f, -0.02947851f, -0.05466761f, 0.06835128f, 0.04596355f, 0.03232031f, -0.01439926f, 0.07202394f, 0.06000293f, -0.04921667f, -0.00848635f, 0.06246758f, 0.00726087f, 0.04637206f, -0.05580513f, -0.02866166f, 0.07633068f, -0.06293346f, -0.03238674f, 0.02016571f, 0.07688145f, -0.04055594f, -0.01721360f, 0.02297212f, 0.03528923f, 0.04058772f, -0.00301165f, -0.07845910f, -0.05617958f, 0.00938557f, -0.00525408f, 0.02100294f, 0.05648359f, 0.02531756f, 0.03871984f, -0.03130408f, 0.03671961f, -0.06587820f, -0.06981333f, 0.03100641f, 0.06730736f, 0.00500412f, -0.02896763f, 0.07213687f, -0.02923355f, 0.06919987f, 0.05330216f, -0.05293369f, -0.03292162f, -0.05558456f, 0.03595311f, 0.00854072f, -0.03076246f, -0.05048843f, 0.06131615f, -0.03844549f, 0.01825535f, 0.06556324f, -0.02804533f, -0.08022940f, 0.03161443f, 0.01755171f, 0.03582866f, -0.06139634f, 0.06884875f, 0.05622745f, 0.00449766f, -0.03988163f, -0.00629006f, 0.00382877f, -0.00334371f, -0.06232870f, 0.04153745f, -0.00356673f, 0.00445715f, -0.07878822f, -0.02709654f, 0.01013911f, 0.02047621f, 0.04838040f, 0.07917278f, -0.00362057f, 0.00371713f, -0.00353357f, -0.00271034f, 0.02837960f, -0.07416189f, -0.00992122f, -0.00166501f, -0.05568425f, 0.00784692f, -0.04128199f, 0.02176470f, 0.02459607f, -0.00868098f, 0.04120582f, 0.03585789f, 0.03145415f, -0.00763008f, 0.03024021f, 0.05811078f, -0.06061488f, 0.03565725f, -0.00212021f, 0.01986767f, 0.05641531f, -0.03240691f, -0.01410916f, 0.00198117f, -0.07744157f, 0.01571937f, 0.06691872f, -0.01189010f, 0.02414452f, 0.02578886f, -0.01854151f, -0.02430242f, -0.07036312f, 0.00724497f, -0.02099306f, -0.00573830f, 0.02292505f, 0.03173568f, -0.01067281f, -0.02058566f, -0.01027096f, 0.06514477f, 0.02400937f, -0.04981687f, -0.04984358f, -0.04781052f, 0.00290032f, 0.03678028f, -0.00986095f, 0.06715084f, -0.03262392f, 0.02020518f, -0.04001326f, 0.02131980f, -0.01635301f, 0.04323918f, -0.05407634f, -0.01840175f, -0.04364973f, -0.03885099f, 0.02622399f, -0.02041529f, 0.03502650f, -0.03909115f, -0.05870410f, 0.07143512f, -0.01274645f, -0.06282965f, 0.05350304f, 0.06724993f, -0.01867327f, -0.07987362f, 0.05670082f, -0.00827271f, 0.05304087f, -0.04842378f, 0.01592480f, -0.02868705f, -0.03563064f, -0.06463626f, -0.07004510f, -0.05511485f, 0.02606058f, -0.00501974f, 0.06170639f, 0.05477913f, 0.02719767f, -0.01764688f, 0.02894849f, 0.05171787f, 0.05138641f, 0.08068641f, 0.05489490f, -0.01416039f, -0.05486032f, -0.06126820f, 0.06665196f, -0.01720424f, 0.02266540f, 0.00520817f, -0.06785380f, -0.07223555f, 0.03586862f, 0.03186604f, 0.01354373f, 0.07815330f, 0.06751179f, -0.06514201f, -0.00191105f, 0.04006749f, -0.05201210f, 0.00696430f, 0.04207264f, 0.06261402f, -0.02783605f, -0.05194863f, 0.02445315f, -0.07465851f, -0.07351755f, -0.01555064f, 0.04094713f, -0.04430994f, 0.00658923f, 0.04714917f, -0.01952847f, -0.05127264f, -0.01331685f, 0.02638666f, 0.01617929f, 0.02503223f, -0.05845256f, 0.05428515f, -0.05365233f, 0.02788815f, -0.04943291f, 0.00933448f, 0.06985810f, -0.00340888f, -0.03630099f, -0.05178737f, -0.01871079f, -0.07582424f, 0.07744465f, 0.00627948f, 0.02817821f, -0.05529240f, -0.01570160f, 0.07414395f, -0.07051328f, 0.02840289f, -0.03975455f, 0.05126255f, 0.00718849f, 0.07129585f, 0.03016425f, -0.08024437f, -0.07769926f, -0.05629276f, -0.04346211f, -0.07833667f, -0.06618342f, 0.06892052f, 0.01682603f, -0.00712842f, -0.03092759f, 0.03964249f, -0.00265823f, -0.01258571f, -0.07013754f, 0.00808904f, -0.07620336f, -0.01360200f, 0.07657521f, -0.04727067f, -0.07024125f, -0.06543398f, 0.04715439f, -0.03452476f, -0.00106893f, 0.05147677f, -0.06620316f, 0.07916457f, 0.07136937f, -0.02710698f, 0.04016399f, -0.01258134f, 0.05382713f, 0.04098114f, 0.06791168f, 0.03314948f, 0.04361547f, -0.04388002f, -0.00490087f, -0.02401171f, -0.03250610f, -0.05587342f, 0.02781428f, 0.03034941f, 0.07012442f, -0.04687059f, 0.02438598f, -0.04871969f, 0.06544349f, -0.02159959f, 0.03862916f, -0.01974868f, -0.04287671f, 0.03943830f, 0.00461336f, -0.01882369f, -0.07580747f, 0.00332675f, -0.06622735f, 0.07401780f, 0.03019594f, 0.04372448f, -0.05865007f, -0.03301462f, 0.00398974f, 0.00596847f, -0.07622413f, -0.06305282f, -0.04328304f, 0.00537340f, -0.06611734f, -0.01366276f, -0.04637821f, -0.02753805f, 0.04109105f, -0.03438317f, 0.04594041f, 0.06171612f, 0.08093175f, -0.05044759f, -0.05327046f, -0.05540752f, -0.03168770f, -0.01805060f, 0.06773373f, -0.07191113f, -0.06054920f, 0.07684693f, 0.07014123f, 0.02445121f, -0.01635218f, -0.00867759f, 0.07456519f, -0.01759818f, 0.03765713f, -0.06621318f, 0.01537793f, -0.04471017f, -0.07297029f, -0.01325236f, 0.04432858f, 0.06273825f, -0.01680794f, -0.01813880f, 0.00570530f, -0.07731603f, -0.05632839f, -0.07961156f, 0.03631052f, 0.01701742f, 0.06614373f, 0.05164099f, -0.07365013f, -0.08083858f, -0.06955898f, 0.04914696f, -0.01805454f, -0.05108462f, -0.04895104f, -0.04799205f, -0.05695951f, 0.03795793f, -0.05666135f, -0.05141311f, 0.05339208f, 0.01702821f, -0.00722330f, 0.03116611f, 0.01625866f, 0.06236232f, -0.00365560f, -0.06765363f, -0.04088306f, 0.01877714f, 0.04030138f, -0.06552982f, -0.05310348f, 0.04956720f, -0.03986099f, -0.03568052f, 0.06138500f, -0.03738964f, -0.01254719f, -0.04655645f, 0.01382066f, -0.00681935f, -0.06895550f, -0.07966724f, -0.02441572f, 0.01523388f, 0.01206701f, 0.02809143f, 0.01904366f, -0.07350869f, 0.06231544f, -0.05889563f, -0.00658214f, 0.05156038f, 0.07074327f, -0.06395833f, 0.01754935f, 0.06778229f, -0.04362150f, 0.06641171f, 0.00168460f, -0.01386053f, 0.06048264f, -0.05357803f, -0.04239880f, -0.00934394f, -0.01809525f, 0.02345628f, 0.02647115f, -0.00207848f, 0.03870093f, -0.07258801f, 0.07909603f, 0.01029702f, 0.05525725f, 0.02070569f, -0.00374790f, 0.04380802f, -0.02703318f, 0.03832024f, -0.00459863f, 0.05453207f, 0.04064835f, 0.02838408f, -0.05604754f, -0.07146825f, -0.03693946f, 0.05969469f, -0.03974523f, -0.03498565f, -0.03049153f, 0.03194985f, -0.01258072f, -0.07026871f, 0.05354846f, -0.05391342f, 0.05207222f, 0.00981523f, 0.00284047f, 0.00211132f, 0.01743709f, -0.04802707f, 0.03128283f, 0.04624190f, 0.08069291f, -0.07862715f, -0.05392520f, -0.04854022f, -0.07114058f, -0.04842481f, -0.02868537f, -0.05822787f, 0.02504488f, -0.03924501f, -0.02740606f, 0.08110597f, -0.00016503f, -0.03215990f, -0.07358608f, 0.05903903f, -0.04016544f, -0.00771219f, -0.04021005f, -0.02929242f, 0.00543248f, 0.05340127f, 0.01858341f, 0.07410168f, -0.02272389f, 0.06175049f, 0.00216834f, 0.07336315f, -0.06861816f, 0.07050451f, 0.03128788f, -0.01341739f, -0.02090513f, 0.04026631f, 0.00459354f, 0.04309063f, 0.04796273f, -0.05614322f, -0.04011889f, -0.07842234f, -0.06974751f, -0.02313508f, 0.04081544f, -0.02971251f, 0.04754401f, 0.03843000f, -0.07906114f, 0.04133879f, 0.01812945f, -0.01853837f, 0.04896840f, 0.00439476f, -0.04284052f, -0.00836621f, -0.05652250f, -0.00645635f, -0.03316269f, -0.05598776f, 0.01419677f, 0.07338984f, 0.03380830f, -0.07189696f, 0.00032192f, -0.07451890f, -0.01282858f, 0.06046916f, -0.00177054f, -0.05471190f, -0.05618898f, -0.06549107f, -0.00419560f, 0.05827113f, 0.01626910f, -0.07588772f, -0.01754428f, -0.00003081f, 0.01704474f, 0.03052323f, -0.07550193f, -0.01595584f, 0.01177033f, -0.04237884f, 0.03563420f, -0.01922482f, -0.03124750f, -0.02815204f, 0.07801167f, -0.03475247f, 0.05819533f, -0.02981856f, 0.02045215f, -0.07145736f, -0.07956456f, 0.00432321f, 0.06661045f, -0.07978921f, -0.02839700f, 0.00088332f, 0.02504498f, -0.00908709f, -0.03462416f, 0.01577276f, 0.02204133f, 0.01482650f, -0.02641851f, -0.00822313f, 0.02019261f, -0.00992972f, 0.06660866f, -0.06765137f, 0.03720231f, 0.06515824f, -0.04572431f, -0.01957964f, 0.01496100f, -0.01678808f, -0.07485506f, 0.03942443f, -0.01406948f, -0.06056069f, 0.05072432f, 0.07121155f, 0.03214598f, 0.07099063f, -0.00601676f, -0.03585133f, -0.04880879f, -0.02388684f, -0.03637264f, 0.05540284f, 0.02585256f, 0.06580842f, 0.02499549f, 0.07131579f, 0.00959373f, 0.07006253f, 0.00378197f, -0.00189649f, 0.03703495f, -0.00446258f, -0.00478056f, -0.07136481f, -0.06633462f, -0.08078366f, 0.07655225f, 0.00897535f, -0.05421585f, 0.05201154f, 0.04293448f, -0.07802267f, -0.05113957f, -0.02356869f, 0.00545330f, -0.05079201f, 0.05066528f, 0.05368099f, -0.04041428f, -0.07942445f, 0.07767325f, -0.07282808f, -0.05255769f, -0.03970739f, 0.05815078f, 0.02306601f, 0.05202643f, 0.01102608f, -0.03110053f, 0.07169890f, 0.00695597f, -0.02414669f, 0.00522426f, 0.04830990f, -0.03288037f, 0.05309791f, -0.04157980f, 0.06908280f, 0.05767568f, 0.03292632f, -0.02026577f, -0.01745767f, -0.07259142f, 0.00959790f, -0.05850008f, -0.02103918f, -0.06517734f, 0.07557138f, 0.04812770f, -0.02168193f, 0.01873323f, -0.06942755f, 0.03373779f, 0.04572982f, 0.04232030f, 0.06869153f, 0.01131663f, -0.06033712f, -0.04109756f, -0.03048497f, 0.01960988f, 0.05505181f, -0.03297900f, -0.00687274f, -0.06254826f, -0.05281543f, -0.01708709f, -0.01655123f, 0.05070917f, 0.03449257f, 0.03210519f, -0.07105866f, 0.00431737f, 0.04657551f, 0.03539203f, 0.06042097f, 0.07988089f, 0.03121484f, 0.07068800f, 0.07333069f, 0.06698180f, 0.02047829f, -0.07699705f, 0.05400635f, -0.06185802f, -0.02049624f, 0.00190776f, 0.04076724f, 0.06321227f, -0.03393591f, -0.04681969f, -0.07692839f, -0.00269061f, -0.06190868f, 0.06338578f, 0.04299144f, 0.00878958f, -0.07936479f, 0.02806846f, 0.07830069f, -0.04985938f, -0.00613531f, -0.04208519f, -0.02475146f, 0.02468753f, 0.04382683f, 0.03856090f, 0.08062037f, 0.05069319f, 0.04107559f, -0.01372378f, 0.07122216f, 0.05644157f, -0.05352344f, -0.00764634f, -0.02503759f, 0.02004301f, 0.00264281f, 0.02103261f, -0.01301632f, 0.04902080f, 0.07561370f, 0.04162928f, -0.02264842f, 0.01534910f, 0.00422762f, -0.03362669f, -0.05888437f, -0.03745125f, -0.06581104f, -0.07066095f, -0.04353589f, -0.06165069f, -0.04357743f, 0.06119507f, 0.08057498f, -0.05560488f, 0.03299151f, -0.02292323f, 0.05601422f, 0.03991874f, -0.04545914f, -0.04460387f, -0.01190063f, 0.07850377f, -0.01232960f, -0.04026660f, 0.06588302f, 0.04995403f, 0.07494114f, 0.01083770f, 0.03840373f, -0.05536747f, -0.02252069f, -0.01592670f, -0.07928132f, 0.02947427f, -0.06339501f, 0.07392680f, 0.06135132f, 0.02534681f, -0.04018164f, 0.03129235f, 0.03075037f, -0.00821814f, -0.02295932f, 0.01733783f, -0.01469447f, -0.01172883f, -0.04454026f, -0.04538332f, -0.06186672f, -0.05982400f, 0.05249924f, 0.05335993f, 0.03844202f, -0.01234806f, -0.06668128f, 0.05630543f, -0.07763036f, -0.03508664f, 0.06385275f, 0.06112782f, -0.05401634f, -0.01839884f, 0.01104157f, -0.02987503f, 0.06832842f, 0.03303868f, -0.01480594f, -0.04985669f, -0.06582067f, -0.02019238f, -0.06574542f, 0.07026786f, 0.00735105f, 0.02824210f, -0.03637592f, 0.01689339f, -0.02433715f, -0.05101095f, -0.06457973f, 0.01991690f, 0.04713229f, -0.06779987f, -0.04272395f, -0.01489685f, 0.05357032f, -0.03262137f, 0.00693563f, 0.05069334f, -0.00802609f, -0.07682896f, -0.03311488f, 0.04060125f, -0.07571331f, -0.04667434f, -0.05566338f, -0.05664876f, 0.06804921f, 0.07998682f, -0.01870149f, -0.03360492f, -0.01122455f, 0.04631177f, 0.07459221f, -0.04440035f, 0.01622334f, -0.05037236f, 0.04232247f, -0.05003994f, 0.07234762f, -0.03114339f, 0.05983334f, 0.06582541f, 0.05606364f, -0.05439102f, -0.06857777f, -0.06289630f, 0.02656040f, 0.01444186f, -0.00775886f, -0.04112301f, 0.03523266f, 0.00786777f, -0.01903844f, -0.05726594f, 0.07538678f, -0.03829871f, 0.01829583f, 0.06729508f, 0.02057437f, -0.06444266f, 0.02550755f, 0.06385028f, -0.03691428f, -0.08012124f, 0.04850001f, -0.02751094f, 0.01816433f, -0.03141205f, 0.02127246f, 0.00514530f, 0.06650686f, -0.06367338f, 0.00585023f, 0.02261394f, 0.05574036f, -0.07638615f, 0.01279946f, -0.04212879f, -0.01443765f, 0.00505737f, -0.02280326f, -0.01351575f, 0.03595717f, 0.04523126f, 0.00775580f, -0.05520166f, -0.00658401f, 0.02189420f, 0.01138622f, 0.02689917f, -0.06578437f, 0.07384404f, 0.05572113f, -0.04947990f, 0.00761878f, -0.04002303f, -0.05244415f, 0.02420902f, 0.06841034f, -0.01201094f, -0.06523418f, -0.04434990f, 0.02231450f, -0.07116189f, -0.03634483f, 0.01056448f, -0.00355484f, 0.03679338f, -0.02471732f, 0.00069891f, 0.03210489f, 0.02116376f, -0.04118837f, -0.00933943f, -0.04942338f, 0.00813127f, 0.06234852f, 0.04213431f, 0.02953863f, 0.04430044f, -0.07623216f, 0.02359810f, 0.00980686f, -0.01846320f, 0.05286048f, 0.01465750f, -0.00255032f, -0.04326587f, -0.05496976f, 0.06021043f, 0.00826221f, -0.06878326f, -0.02333912f, -0.00655354f, -0.00672884f, 0.03185590f, 0.01381271f, -0.05674426f, 0.07128594f, 0.03612319f, -0.01694714f, -0.07270300f, 0.07905120f, 0.00429204f, 0.04872111f, -0.04526870f, 0.02332696f, 0.01889534f, -0.03834924f, -0.01520000f, -0.01856405f, 0.02248222f, 0.00895597f, 0.03200673f, -0.02261523f, 0.07797747f, 0.00174733f, 0.00266503f, -0.00960618f, 0.02514907f, -0.04307219f, 0.01184279f, 0.06231651f, -0.07741321f, 0.01622988f, 0.07576347f, 0.06509151f, -0.07919757f, -0.02005859f, -0.03654297f, 0.00851682f, 0.04758532f, -0.03819376f, -0.03370994f, 0.03668853f, 0.04469702f, -0.00268671f, -0.00837513f, 0.04279716f, 0.06328920f, 0.03063788f, -0.01401334f, 0.07799875f, -0.04863182f, -0.00198879f, -0.06644222f, -0.05209631f, 0.04291368f, 0.04022867f, -0.06308378f, -0.01454716f, 0.05650304f, 0.04546423f, 0.04859111f, 0.08012337f, 0.06622534f, 0.01559918f, 0.07837489f, -0.03842534f, -0.00151324f, 0.06888612f, -0.06913412f, 0.03951971f, -0.05774176f, -0.00692033f, -0.04184282f, 0.01117767f, -0.03141646f, 0.07414130f, 0.07084469f, 0.06151871f, 0.03426484f, 0.02463847f, 0.05317033f, -0.04473531f, -0.05365964f, 0.02744381f, -0.07068164f, 0.00387522f, 0.03166838f, -0.07774226f, -0.03396542f, -0.07524320f, -0.05743413f, 0.05503487f, -0.07506140f, 0.01630841f, 0.07281322f, 0.05651780f, -0.00563336f, -0.05404133f, -0.00455353f, -0.03934008f, -0.03794963f, -0.04289681f, 0.02562805f, 0.03077430f, 0.03896377f, -0.07265641f, 0.01934718f, 0.00364155f, -0.04714457f, -0.06894496f, 0.03585298f, 0.05815502f, 0.06861935f, 0.06883102f, -0.06975249f, 0.01344275f, -0.01049022f, 0.00867046f, -0.04307904f, 0.05319528f, 0.02339716f, 0.03461159f, 0.00838719f, -0.01690850f, -0.04093920f, 0.01342271f, 0.01758880f, -0.05008245f, 0.05459676f, 0.03391132f, -0.06303048f, 0.05104534f, 0.03881011f, -0.02652435f, 0.07789167f, 0.04289848f, 0.05034680f, 0.06076003f, -0.04557277f, -0.04293977f, 0.03188648f, -0.05422136f, -0.02680586f, 0.00429320f, -0.07931037f, -0.00155810f, -0.02201374f, 0.03912490f, -0.06550691f, 0.04183006f, 0.06105440f, -0.00959365f, -0.00763784f, -0.06382066f, -0.04377013f, 0.02197582f, -0.06438844f, -0.00720721f, 0.02075740f, 0.01179973f, 0.05235516f, 0.04225440f, -0.07356295f, 0.06647091f, 0.05131602f, -0.02172163f, -0.00856987f, -0.03052557f, 0.06101988f, 0.01130861f, 0.06191409f, 0.08037405f, 0.04411042f, -0.02869073f, 0.02962307f, -0.05611135f, 0.05324801f, -0.00777013f, -0.05689343f, 0.03614570f, 0.02572112f, -0.05741040f, 0.05612188f, -0.04724710f, 0.00207461f, -0.06182412f, -0.03741710f, -0.05696984f, 0.07713708f, -0.05010451f, 0.01592105f, -0.00585137f, 0.06247117f, -0.06091636f, -0.02759740f, 0.06898888f, -0.05253245f, 0.07104082f, -0.01584820f, -0.04368524f, -0.03428267f, 0.05540647f, -0.02996918f, 0.04924179f, 0.07617418f, 0.03865138f, 0.06521017f, -0.04729168f, 0.07063905f, -0.07939424f, -0.00839476f, 0.06806170f, 0.04604941f, 0.04787166f, -0.07053521f, -0.00556125f, -0.05194194f, -0.03761738f, -0.02644238f, -0.02070540f, 0.02952467f, -0.05476023f, -0.04697337f, 0.02336007f, 0.03172912f, 0.01241167f, 0.05823105f, 0.00905059f, 0.02358520f, 0.08091664f, -0.07693097f, 0.01751654f, 0.00426077f, -0.04725434f, -0.03593605f, 0.05266189f, -0.01861795f, -0.05005367f, 0.04483957f, 0.07099680f, -0.06846512f, 0.05790899f, 0.00285184f, 0.07163326f, -0.01795346f, 0.04548884f, 0.04307991f, 0.04847359f, 0.02937867f, -0.02043097f, -0.05471213f, 0.01420429f, 0.04953235f, 0.06380431f, -0.07437380f, -0.05478517f, -0.02015242f, -0.06720538f, 0.06951485f, 0.03326155f, -0.05398072f, 0.01901454f, -0.02097670f, -0.02299032f, -0.02239021f, 0.02958785f, 0.06486516f, -0.00171944f, 0.03485518f, -0.07891426f, 0.03974545f, -0.04319501f, 0.06099219f, 0.01111659f, -0.04516642f, -0.03166914f, -0.01325716f, 0.07235847f, -0.00848509f, -0.03612261f, -0.06298982f, 0.06334471f, -0.00427072f, 0.06102254f, -0.02100547f, -0.02167286f, -0.00290471f, -0.00860477f, -0.02343877f, -0.03158645f, -0.07662480f, -0.05249923f, -0.06556832f, 0.04474518f, 0.00867725f, -0.00042848f, -0.06885081f, 0.06609631f, -0.06987508f, -0.05353913f, 0.04243962f, 0.07902990f, 0.01330280f, 0.05288699f, -0.03913254f, -0.01511634f, 0.05623489f, 0.04064801f, 0.06229884f, 0.01690573f, -0.04950568f, 0.05191011f, 0.05155405f, -0.00632850f, -0.02055410f, -0.04290070f, 0.05444226f, -0.02292563f, -0.02150266f, 0.07272851f, -0.02499481f, -0.06346086f, 0.03732134f, 0.02178297f, -0.07191069f, 0.04296663f, 0.05627625f, 0.02207042f, 0.06713844f, 0.04339041f, 0.00966761f, 0.00100764f, 0.07974318f, 0.05753496f, 0.07714187f, -0.06083145f, -0.07875652f, 0.05350546f, -0.01013271f, 0.04327264f, 0.00950696f, 0.04658335f, 0.01707079f, 0.03621590f, -0.07718428f, 0.02237068f, -0.03506608f, -0.04040335f, -0.06503387f, -0.01205464f, 0.04720765f, -0.03167178f, 0.03092001f, -0.05057027f, 0.00854960f, -0.02518119f, -0.00245608f, -0.00660039f, -0.01950672f, 0.02466341f, -0.07407000f, -0.03202455f, -0.03953880f, 0.03700333f, -0.04039676f, 0.07164792f, -0.01374902f, 0.00258425f, 0.03653858f, 0.07235500f, -0.01552796f, 0.01295275f, -0.04016733f, 0.00908007f, 0.07345889f, 0.08698181f, -0.02200963f, -0.01142091f, 0.05830510f, -0.00308879f, -0.06907408f, -0.01242717f, -0.05966941f, 0.07081138f, -0.04322267f, -0.05186341f, 0.02232324f, -0.04160475f, -0.06727375f, -0.06114924f, 0.04018367f, -0.01362265f, -0.05845473f, -0.02738829f, -0.03841899f, 0.04050136f, -0.06549931f, -0.02411200f, 0.01514638f, 0.01382083f, 0.05038600f, -0.02197706f, 0.06377754f, 0.03485938f, 0.04070912f, 0.00674436f, 0.04074127f, -0.04583193f, -0.00611377f, -0.04130501f, -0.00589985f, 0.02211507f, 0.06500689f, -0.07158567f, 0.05538570f, 0.04006155f, -0.02330298f, -0.04451871f, 0.06902708f, -0.06877974f, 0.01600999f, -0.03407171f, -0.00286604f, 0.04677746f, -0.02564380f, -0.05727219f, 0.05884810f, -0.09164733f, 0.03321070f, -0.00191809f, -0.06072725f, -0.01126740f, -0.07525500f, 0.06749595f, 0.04825959f, -0.06439935f, 0.04068602f, 0.04601929f, -0.06747933f, 0.00403159f, -0.03281767f, -0.06619744f, 0.06212727f, 0.08205274f, 0.02797921f, 0.05980014f, -0.05492346f, -0.04852841f, -0.03737248f, -0.06587938f, 0.00958002f, -0.05013435f, -0.04413669f, 0.07844878f, -0.07317125f, 0.06720876f, 0.07997506f, 0.01517680f, -0.04644082f, 0.08688350f, 0.00941012f, -0.02499086f, -0.06443588f, -0.05782655f, -0.08143966f, -0.06772882f, -0.02590671f, 0.01710073f, -0.02930372f, 0.04056949f, -0.01269919f, -0.00187036f, 0.01607358f, 0.01538936f, -0.07454320f, -0.03517574f, 0.02746936f, 0.07965919f, -0.06257868f, 0.05553684f, -0.05401372f, -0.05837966f, -0.03263845f, -0.03768940f, -0.02667486f, -0.04603770f, -0.03994035f, 0.04485837f, 0.05370865f, -0.01510636f, -0.04595055f, -0.02721921f, 0.04066382f, 0.04312602f, -0.08111336f, 0.03786264f, -0.05710590f, 0.01028687f, -0.04355223f, 0.11228280f, -0.06855964f, 0.02747771f, 0.03584007f, 0.00243998f, 0.04675366f, 0.05537110f, -0.02077056f, 0.09380218f, 0.01915998f, -0.00670089f, -0.00782772f, -0.02528655f, 0.05381173f, 0.00629048f, 0.06754356f, 0.00936830f, 0.01196090f, -0.08026048f, -0.00256445f, 0.00826000f, 0.03961076f, 0.01433943f, -0.05786637f, 0.07333712f, -0.07342967f, -0.01516846f, 0.09766202f, 0.04605613f, -0.06988798f, 0.02478189f, 0.04874209f, 0.04021528f, 0.00757458f, 0.01519675f, 0.01912022f, -0.07632966f, 0.03588264f, -0.06148243f, 0.06168910f, -0.03803404f, -0.02960396f, -0.00020333f, 0.02971726f, 0.04214911f, -0.03231104f, -0.11114128f, 0.05929730f, 0.02140858f, -0.10131066f, -0.02626133f, -0.01705673f, -0.01927782f, -0.08047970f, 0.04488960f, 0.01328416f, 0.02980437f, -0.03810274f, 0.12103886f, 0.01483319f, 0.01534284f, 0.06944960f, 0.02418962f, 0.08338015f, 0.03560131f, 0.07960374f, -0.00985689f, -0.04241758f, 0.02630999f, -0.02782182f, -0.05831116f, -0.05040564f, 0.02441836f, -0.07255828f, 0.07216084f, 0.05796441f, -0.03123636f, -0.02996083f, -0.02579383f, 0.00576866f, -0.02932409f, 0.00533149f, -0.06632903f, 0.02026826f, -0.01060207f, -0.03737947f, 0.01484700f, -0.00200673f, 0.00826129f, -0.03102391f, -0.05476877f, 0.01283295f, 0.00455857f, -0.01045426f, -0.07813653f, 0.11859941f, 0.08597419f, 0.12966380f, 0.03671335f, -0.07188267f, -0.02893880f, -0.12125037f, 0.05354354f, 0.05480122f, -0.03060954f, -0.01599788f, 0.03136085f, -0.03909765f, -0.03667890f, -0.05772219f, 0.01662395f, -0.03374800f, 0.02469073f, 0.07253139f, -0.04415475f, 0.00027536f, -0.01262471f, -0.01115292f, 0.09551376f, 0.06914476f, -0.05207567f, 0.00216345f, -0.04721618f, -0.04443539f, -0.05044004f, 0.08943729f, 0.01634834f, 0.09748278f, 0.12613910f, 0.02106712f, -0.14299434f, 0.02058082f, 0.00387982f, 0.08752508f, -0.08225647f, 0.10700987f, 0.10994884f, -0.03902207f, 0.16213678f, 0.01807916f, 0.06048454f, 0.00193160f, -0.07375229f, 0.00338506f, -0.06800958f, 0.09211025f, -0.06814666f, -0.06377742f, -0.05766566f, 0.06744928f, 0.01597125f, 0.02089413f, 0.08923588f, 0.04131705f, -0.07078503f, 0.04004074f, -0.04059768f, -0.00064441f, -0.04914753f, -0.04953204f, -0.12778716f, 0.03439562f, 0.05910824f, -0.12697585f, -0.07845917f, -0.01139357f, -0.02170422f, -0.00320544f, -0.03563859f, -0.04852575f, -0.09729404f, 0.14862733f, 0.00413344f, -0.02794738f, -0.05512675f, -0.04812077f, -0.08458672f, 0.01861069f, 0.08687474f, 0.14694351f, -0.02376339f, 0.08034270f, 0.00351341f, 0.11280724f, 0.01039411f, -0.02055463f, 0.07191992f, 0.01760094f, 0.08599400f, 0.12041631f, 0.03612033f, 0.02364512f, 0.02078196f, -0.00641084f, 0.05381915f, 0.01270598f, -0.05970166f, -0.12243953f, 0.03349864f, -0.02656224f, -0.00650316f, 0.01526535f, 0.06190252f, 0.00529757f, 0.10597520f, 0.03086176f, -0.17452544f, -0.01341173f, -0.06029163f, -0.05136210f, 0.04253975f, 0.06518213f, -0.10340354f, -0.02165564f, -0.04238654f, -0.05526430f, 0.03974263f, 0.02057591f, -0.07661805f, 0.06943592f, 0.06862219f, -0.12971100f, -0.05149340f, 0.08756557f, 0.13327812f, 0.12159009f, -0.01387947f, 0.02040956f, -0.08023366f, -0.18532951f, -0.08224088f, -0.15802343f, 0.05776929f, -0.04377155f, -0.07294939f, -0.00020081f, -0.00271125f, 0.03558409f, -0.03763788f, 0.03454807f, -0.05344082f, -0.06677718f, -0.08050903f, 0.12892327f, -0.02527345f, -0.04531161f, 0.13133103f, -0.10838167f, -0.01911336f, -0.09971309f, -0.11588513f, 0.05420598f, 0.05215258f, 0.16332012f, 0.04269009f, 0.08999319f, 0.02251612f, -0.05521956f, -0.09694729f, 0.01480862f, 0.07514370f, -0.00703194f, 0.02443739f, 0.01968458f, 0.06261854f, 0.01230727f, 0.05692756f, 0.02194705f, -0.05203633f, 0.07762045f, -0.03200939f, -0.02237762f, -0.07615981f, 0.09111514f, -0.02944625f, -0.13152668f, -0.03825257f, 0.15932383f, -0.01509634f, 0.08257410f, 0.14445426f, -0.06197333f, -0.03160545f, 0.01665181f, -0.04188289f, -0.09903096f, -0.08891550f, -0.01875922f, -0.04658607f, 0.06180496f, -0.04521377f, -0.17021415f, 0.04959068f, -0.13217950f, 0.03052860f, 0.02857727f, -0.02187693f, 0.00432526f, -0.05700588f, 0.11059838f, -0.02693371f, -0.08629046f, -0.00325935f, -0.03703322f, -0.01545796f, -0.00864337f, 0.06336092f, 0.16267759f, -0.10639316f, -0.00488903f, -0.00467738f, 0.14631020f, -0.01506881f, 0.01326514f, 0.16100968f, -0.05321220f, -0.00685190f, 0.09167971f, 0.03185638f, 0.11534653f, -0.05444313f, -0.02040708f, 0.04204138f, -0.01697771f, -0.06337585f, -0.04630790f, -0.00563099f, -0.03914725f, 0.00390988f, 0.04916526f, -0.05692551f, 0.01508682f, 0.09524120f, 0.03592669f, -0.08154553f, -0.02200719f, -0.03827039f, -0.03187288f, -0.04179389f, 0.02935619f, -0.13355654f, -0.10464975f, -0.05691520f, 0.04110963f, 0.09184357f, -0.04383316f, -0.04943673f, 0.03316000f, 0.02760159f, -0.02007538f, -0.06994873f, 0.12694088f, 0.12267296f, 0.05770087f, 0.06771917f, -0.03276394f, -0.02013136f, -0.00952827f, -0.06578390f, -0.11511678f, 0.08514347f, 0.00933590f, 0.00781330f, 0.06639395f, -0.00686851f, -0.04212721f, -0.12398224f, -0.02301871f, 0.00259418f, -0.06997316f, -0.07893115f, 0.00430873f, 0.07655364f, -0.14750294f, 0.08360630f, -0.11291251f, -0.12542711f, -0.00988224f, -0.04770118f, 0.03664523f, 0.04407620f, 0.11873050f, -0.02863161f, 0.09670903f, -0.03195568f, -0.07291767f, 0.06766028f, 0.05868930f, 0.02615176f, 0.10823233f, -0.07337733f, 0.10437650f, -0.03249029f, -0.04583791f, 0.03623949f, 0.03138825f, 0.03529909f, 0.10322072f, 0.06974221f, -0.07790099f, 0.00166858f, 0.06164753f, 0.01318536f, 0.02717157f, 0.02488837f, -0.01707275f, -0.00341915f, -0.05907295f, 0.07848076f, -0.01325636f, 0.03721859f, 0.02780808f, -0.01172812f, 0.03010297f, 0.00393916f, 0.04877553f, -0.13352445f, -0.02772976f, 0.00571957f, -0.08071028f, -0.07522623f, -0.05870335f, 0.00354326f, -0.07670192f, -0.00430892f, -0.04001597f, -0.12619098f, -0.01182537f, 0.11504062f, -0.04129175f, 0.01489454f, 0.06282006f, -0.03885457f, 0.01322498f, 0.05684181f, 0.08591775f, -0.02092640f, 0.03971996f, -0.01690085f, 0.08491172f, -0.08865879f, 0.10251305f, 0.13688958f, 0.06773678f, 0.07362757f, 0.05137637f, 0.19202776f, 0.06916934f, -0.00569628f, 0.04542565f, -0.05902442f, -0.02121658f, -0.00423447f, -0.04622183f, -0.03826485f, 0.05455519f, -0.01516577f, -0.13756414f, 0.03348197f, 0.10846478f, -0.02138765f, 0.06886096f, 0.01660708f, 0.01488117f, -0.00137666f, -0.07223246f, -0.07450629f, 0.00392407f, -0.03719442f, -0.02033897f, -0.07788753f, 0.06303149f, 0.14706475f, 0.05594259f, 0.04502966f, 0.09583785f, 0.01969719f, -0.03941468f, -0.00672981f, 0.09983162f, -0.03187357f, 0.10897788f, -0.05608143f, 0.04224997f, 0.01259699f, -0.11302216f, -0.05586437f, -0.05297313f, 0.05257002f, 0.06767564f, 0.06840053f, -0.04764541f, 0.09786855f, 0.08264902f, 0.00104996f, -0.04056406f, -0.00839955f, -0.02986208f, -0.02305752f, 0.07449521f, 0.07636037f, -0.03456645f, 0.07743903f, -0.03397969f, -0.02798004f, -0.03174155f, 0.04139161f, -0.07931175f, -0.09524182f, -0.03526868f, 0.10719254f, 0.07495921f, 0.03221628f, -0.02272422f, 0.09293561f, 0.12694441f, 0.06944387f, 0.15677395f, -0.04928358f, 0.13329980f, 0.02691361f, 0.11189314f, 0.08122605f, 0.09571423f, 0.05784909f, -0.06307165f, -0.03493364f, 0.05913034f, 0.03207683f, 0.15023616f, -0.08166370f, 0.11091411f, 0.00069947f, 0.17809759f, -0.01215224f, 0.00162454f, 0.03612676f, -0.04749376f, -0.03783503f, 0.06587431f, 0.09094004f, -0.06165373f, -0.13858064f, -0.05428587f, -0.09567273f, 0.01188985f, -0.06604172f, -0.14152721f, -0.05884870f, -0.08924411f, -0.01590274f, -0.04123432f, 0.02758428f, -0.10058158f, -0.04081191f, 0.06703484f, 0.15310313f, -0.15141672f, -0.04386435f, -0.10079171f, -0.11294144f, 0.00347387f, -0.01612207f, -0.04249056f, -0.01847217f, 0.01410991f, -0.05783304f, -0.00564433f, -0.10500149f, 0.06621922f, 0.15127738f, -0.04382218f, 0.07047594f, -0.05024729f, 0.08753834f, 0.17446771f, -0.03292431f, -0.07301961f, -0.07521297f, -0.02944039f, -0.09259795f, -0.02905774f, 0.08287238f, 0.02301915f, 0.09395827f, -0.05998726f, -0.03176006f, -0.03732438f, 0.04829276f, -0.03746591f, -0.02506671f, -0.01007671f, 0.11667363f, 0.05014869f, -0.01640191f, -0.05990614f, -0.07895614f, -0.09753783f, -0.03232623f, -0.02273691f, 0.11562616f, -0.00033735f, 0.03955712f, 0.11937932f, -0.10455421f, -0.12015872f, -0.06463960f, 0.03655226f, 0.06257246f, -0.02690811f, -0.04833000f, 0.01225679f, -0.11345652f, -0.12641992f, 0.02513589f, -0.11773694f, 0.06354448f, 0.03451188f, 0.01524947f, -0.03073291f, -0.02987147f, 0.06752224f, 0.04106102f, -0.07587786f, 0.02828176f, -0.00263271f, 0.03795011f, 0.07691425f, -0.01279244f, -0.04270124f, 0.15369394f, -0.09006272f, -0.01820893f, -0.08781441f, -0.02068283f, -0.00762007f, -0.12398864f, 0.04385776f, 0.08971671f, 0.09753814f, 0.16168688f, -0.03568679f, 0.10771829f, -0.03040785f, 0.06874465f, 0.17515682f, 0.01026708f, 0.06057291f, 0.04626901f, 0.04552907f, 0.09350818f, -0.00986222f, 0.05015513f, 0.06101709f, -0.05179525f, 0.06095212f, -0.07333340f, 0.05923583f, -0.11558794f, 0.11962505f, -0.03089307f, 0.16620596f, -0.01170975f, -0.00867338f, 0.09799068f, -0.01685202f, 0.02666114f, 0.07841093f, 0.13937442f, -0.00115837f, -0.01164281f, 0.09434251f, -0.02008526f, -0.07511546f, -0.08278355f, -0.06896862f, 0.06197476f, -0.06235436f, 0.11293293f, 0.01863156f, 0.01859471f, -0.07026698f, -0.05398149f, 0.02649163f, 0.08272222f, -0.01566929f, -0.03127398f, -0.11970402f, -0.07565267f, -0.18568107f, -0.04793445f, 0.06469809f, 0.00800095f, -0.03870616f, 0.00362494f, 0.12424950f, -0.05612763f, 0.06904998f, 0.23119479f, 0.02870101f, 0.09518474f, 0.02530788f, 0.02706798f, 0.12931201f, -0.01588136f, 0.07892217f, -0.06621296f, -0.06337256f, 0.04978194f, -0.03845474f, 0.06083197f, -0.02054207f, 0.11149078f, -0.09259716f, 0.05494293f, 0.07407867f, 0.16099107f, -0.00737278f, -0.00497087f, -0.05443148f, 0.09848603f, -0.00877743f, 0.02707667f, -0.02492583f, -0.04337855f, -0.06169187f, -0.02206684f, -0.07098224f, 0.11263460f, -0.05758476f, 0.06679290f, 0.04017704f, -0.07617249f, -0.04600960f, -0.08901609f, 0.02499048f, 0.09928744f, 0.11068746f, 0.06833715f, -0.08426432f, -0.03442711f, 0.00235979f, 0.03615020f, -0.08727763f, 0.01114533f, -0.07463279f, 0.06446043f, -0.07722053f, -0.10794420f, 0.10210972f, -0.01579825f, -0.03832000f, 0.03545311f, -0.00601867f, -0.04797378f, 0.07676672f, 0.04758174f, 0.02569833f, 0.07333083f, -0.10575665f, 0.02640308f, 0.03319319f, 0.00878686f, 0.04627555f, -0.09617811f, -0.02619977f, 0.12013169f, -0.00185012f, 0.04078890f, -0.11419100f, 0.06274166f, -0.05334070f, 0.05285907f, -0.05137699f, -0.03572939f, 0.05044651f, 0.16594690f, 0.04670454f, 0.00122654f, 0.03416543f, 0.10083946f, 0.04790929f, 0.08520500f, 0.05209864f, -0.09059878f, 0.02815143f, -0.14576574f, -0.01683064f, 0.09615413f, 0.05138116f, 0.04063665f, -0.07633403f, 0.14756115f, 0.11600958f, 0.02524018f, 0.19229010f, 0.00823056f, -0.09008192f, -0.03395589f, 0.14634983f, -0.09287863f, 0.09522178f, 0.00106936f, -0.02438779f, 0.06010484f, -0.09482057f, 0.08332635f, 0.06788699f, -0.07069284f, 0.04301626f, -0.13354887f, 0.07003590f, 0.03414605f, -0.13479979f, -0.10273043f, -0.00094439f, -0.04996190f, -0.07934620f, 0.06577309f, 0.05196896f, -0.02609418f, 0.10551105f, -0.11409196f, 0.13816199f, -0.24521533f, 0.17537484f, 0.22030005f, -0.09619378f, 0.01684632f, 0.10967690f, 0.06603961f, 0.13601987f, 0.05468915f, 0.09214310f, 0.01395899f, -0.14105782f, 0.07854187f, -0.00166006f, 0.06019262f, 0.02964889f, 0.15271962f, -0.05604419f, -0.07749495f, 0.15152168f, 0.04064666f, 0.01235422f, -0.03522063f, -0.08544094f, 0.06914710f, 0.00595424f, -0.08105464f, -0.04827480f, 0.06110018f, -0.03520104f, 0.06229115f, 0.07295052f, -0.04991163f, -0.07025801f, 0.00647975f, 0.06472794f, 0.00340623f, -0.13904047f, -0.00276931f, 0.03592141f, 0.03897695f, -0.04804270f, -0.13513421f, -0.09805099f, -0.04602355f, -0.12930425f, -0.16891056f, -0.12687260f, 0.14233303f, -0.16602866f, 0.05475588f, -0.07382563f, 0.03698981f, 0.09762685f, -0.03643272f, 0.02876230f, -0.02712642f, 0.00938639f, 0.01232505f, 0.09761994f, 0.08076517f, -0.03469914f, 0.14518620f, 0.01663788f, 0.05111944f, -0.10312112f, 0.01983566f, -0.15343298f, -0.15232244f, 0.01822241f, 0.03429745f, -0.01232874f, -0.02179286f, -0.12639666f, 0.17991208f, 0.08322833f, 0.06081345f, 0.00251086f, 0.01587179f, 0.08370081f, 0.07603368f, 0.04969392f, 0.10319970f, -0.08559735f, 0.15514538f, 0.02655665f, 0.14215945f, -0.10510900f, -0.02563724f, 0.10716028f, -0.12443189f, -0.00558346f, 0.10316193f, 0.06379045f, 0.03760790f, 0.04660536f, 0.11247373f, -0.00910771f, 0.03937415f, 0.10944535f, 0.07937593f, -0.07221518f, -0.11690438f, 0.05146341f, -0.05420649f, 0.07009728f, -0.06597359f, -0.14631996f, 0.00997285f, -0.07613491f, 0.12397947f, -0.03861677f, -0.01154903f, -0.00888962f, -0.10040744f, 0.05096643f, 0.17102827f, -0.03687874f, -0.03631673f, 0.04281490f, -0.10387355f, -0.18042451f, 0.02651571f, 0.08508217f, -0.03760821f, 0.16283093f, -0.08225554f, 0.19554418f, -0.32240403f, 0.09496710f, 0.20834823f, -0.01647220f, 0.05071430f, 0.04869727f, 0.05653777f, 0.08667279f, 0.03560519f, -0.00872830f, 0.03066422f, -0.16446951f, -0.00147908f, -0.04508104f, 0.15474273f, -0.01636579f, 0.12342101f, -0.09671279f, 0.00619535f, 0.19674914f, -0.00133604f, -0.00099441f, -0.05969790f, 0.04546187f, 0.13354141f, 0.10960037f, 0.01000557f, -0.06319616f, -0.07777761f, -0.07058710f, 0.03202909f, 0.02151443f, 0.03319043f, 0.00696830f, 0.08856195f, 0.16587532f, 0.01842324f, -0.17107582f, 0.02486911f, 0.09495336f, 0.17121890f, -0.03291159f, -0.20239623f, 0.01277485f, -0.14353441f, -0.06670769f, -0.08657276f, -0.08973669f, 0.10330007f, 0.01062192f, 0.10180076f, -0.02106754f, 0.07413178f, 0.08515140f, -0.10528970f, 0.11210850f, 0.02715140f, 0.00383419f, -0.04489746f, -0.02492598f, 0.00546869f, -0.06330097f, 0.12088788f, -0.08666568f, 0.14628311f, -0.17724717f, 0.02962487f, -0.10449746f, -0.09466166f, -0.06905097f, 0.19278000f, 0.00345300f, 0.05356436f, -0.06175082f, 0.07065877f, 0.10229780f, -0.04914688f, 0.11856843f, -0.07209048f, 0.03928492f, 0.15311015f, 0.05764514f, 0.09168578f, 0.09878772f, 0.12102053f, -0.02102568f, -0.05646292f, -0.08006082f, 0.01259493f, 0.15329400f, -0.02458432f, 0.02650936f, -0.00417604f, 0.03666715f, 0.12330771f, -0.07018439f, 0.05272915f, -0.04325818f, 0.05619134f, 0.08496787f, -0.02523533f, 0.03308700f, -0.22030973f, 0.09168302f, -0.07287703f, 0.04886526f, -0.00847921f, -0.03951066f, -0.03391678f, -0.12891974f, 0.03748981f, -0.04700182f, -0.06737050f, 0.04465381f, -0.07113060f, 0.03781738f, 0.02612627f, -0.05359254f, -0.05165685f, -0.00137855f, -0.07765972f, -0.04932532f, -0.01038396f, 0.10159407f, -0.02722418f, 0.01052818f, -0.00994410f, 0.09605302f, -0.17110658f, 0.20330305f, 0.33190846f, 0.02756107f, 0.09508906f, 0.00823519f, 0.18905833f, 0.08658258f, 0.04529568f, -0.00156650f, -0.03509894f, -0.07097369f, 0.14701405f, -0.08864287f, 0.06570106f, 0.03695042f, -0.03475600f, -0.05672830f, 0.00664402f, 0.15770674f, -0.06727367f, 0.05425135f, -0.04941128f, -0.01943568f, -0.00019988f, 0.08837584f, -0.02488851f, -0.07315478f, 0.04604661f, -0.04760420f, -0.09182815f, 0.11617371f, 0.00122859f, 0.03550073f, -0.02300968f, 0.24666913f, 0.04292831f, -0.16351077f, 0.03394355f, 0.09118271f, 0.16509198f, -0.03409586f, -0.07147902f, -0.01171424f, -0.15314171f, -0.06222538f, -0.07268114f, -0.08727514f, 0.05633251f, -0.06171632f, 0.14142272f, 0.00349293f, 0.12040232f, 0.02420844f, -0.00141699f, 0.04028714f, -0.01180241f, -0.03990793f, -0.01392991f, -0.00031407f, 0.00406375f, -0.12033152f, 0.07687952f, -0.04325218f, 0.02691972f, -0.14155671f, 0.06332335f, -0.05275086f, -0.02544929f, -0.05953590f, 0.02257432f, -0.14772534f, -0.16001736f, -0.04519387f, 0.05970174f, 0.11955871f, 0.11890558f, -0.03511630f, -0.07069151f, -0.03369438f, 0.05577427f, 0.08432264f, 0.11803722f, -0.01359563f, 0.14731739f, 0.00700716f, -0.11448095f, -0.06692391f, 0.00104188f, 0.19214085f, -0.01490077f, -0.05372874f, -0.06857509f, -0.05095446f, 0.01960587f, 0.04364106f, -0.14261937f, -0.06456146f, -0.01706186f, -0.00176174f, -0.06797377f, 0.14878073f, 0.10022469f, 0.13285646f, 0.01192515f, 0.02279796f, 0.00790244f, -0.11270142f, 0.09208937f, -0.08282056f, 0.09317065f, -0.05607744f, 0.00651111f, 0.11702137f, -0.16259065f, 0.09477566f, -0.09654300f, -0.08856057f, -0.07322177f, -0.00548274f, 0.00316109f, 0.07722708f, -0.10492089f, 0.11737587f, -0.10406760f, -0.06809612f, 0.01643408f, 0.23928185f, 0.06808938f, -0.01724042f, 0.36671865f, 0.11763329f, 0.12813970f, -0.03454530f, -0.03040482f, -0.02832766f, 0.03472506f, 0.18533276f, -0.05004704f, 0.09689220f, -0.08677523f, -0.06159303f, 0.03150385f, 0.00180047f, -0.04740103f, 0.01714669f, -0.04207888f, -0.06841758f, 0.08049987f, 0.06057990f, 0.02985670f, 0.14190766f, -0.01824713f, 0.05647203f, 0.11753920f, -0.02369596f, 0.08730324f, -0.11132486f, -0.08477290f, -0.07984684f, -0.12429880f, 0.12872396f, -0.03172696f, 0.04505827f, -0.12848225f, -0.11858130f, 0.09710307f, 0.05105252f, -0.01387538f, 0.00847394f, -0.10674524f, 0.01452199f, -0.09064899f, -0.18685362f, -0.03730043f, 0.12780912f, -0.01682828f, 0.00959581f, 0.13204253f, 0.11640401f, 0.09570875f, 0.11664964f, 0.08285802f, 0.02728239f, -0.01647813f, -0.09611145f, 0.06049441f, -0.07733061f, 0.02831250f, 0.06181318f, 0.00760906f, -0.02431493f, 0.00351390f, -0.10435139f, 0.08529872f, -0.01443478f, 0.03221963f, -0.11675211f, 0.03077926f, 0.08028544f, -0.13015786f, -0.07975931f, -0.12888359f, 0.04662044f, 0.05077104f, -0.08913473f, 0.00513134f, 0.09606259f, 0.03314633f, -0.09478816f, 0.01260738f, 0.06826519f, 0.14878780f, -0.04899457f, 0.09089380f, -0.01715279f, -0.03190702f, -0.00993487f, 0.08520426f, -0.22579551f, 0.03704767f, -0.08856785f, -0.04913094f, 0.03829217f, 0.07387708f, 0.06432033f, 0.07056510f, 0.15488221f, -0.03142252f, 0.05597526f, 0.11636356f, -0.07565706f, -0.07228032f, 0.01770400f, 0.02830028f, 0.00064692f, 0.03049012f, -0.10307749f, 0.20560649f, -0.06132510f, -0.01437929f, 0.04516875f, -0.15440047f, 0.03414880f, 0.15227167f, -0.04630667f, -0.02843299f, 0.17811663f, -0.01372458f, 0.05690242f, 0.11362801f, 0.07506242f, -0.03883918f, -0.00987124f, -0.07886840f, 0.12559347f, -0.17701501f, 0.07290510f, 0.28502536f, 0.04425955f, 0.19155777f, 0.08449765f, -0.02042028f, 0.05551979f, 0.06726908f, 0.12936029f, 0.00615298f, 0.10683225f, -0.00855994f, -0.06061032f, 0.09943200f, 0.07409319f, 0.21589077f, -0.11126505f, -0.00567555f, -0.06730905f, 0.13466905f, -0.04725530f, 0.04763211f, 0.03199150f, -0.10040215f, 0.13265252f, -0.13101661f, -0.03734007f, -0.10721800f, -0.12488086f, -0.04309784f, 0.06295829f, -0.07148601f, 0.01704823f, 0.06829500f, 0.17075835f, 0.06582482f, -0.07849151f, -0.08486141f, 0.20935559f, 0.07013719f, 0.09277758f, -0.04306649f, -0.00274341f, -0.12120306f, -0.13484029f, 0.01550628f, -0.05427303f, 0.08222080f, 0.05226421f, 0.00792707f, 0.07651899f, 0.14222808f, 0.06207559f, -0.03188525f, -0.01076862f, 0.04778754f, -0.09235481f, 0.07230952f, -0.06714981f, -0.03085644f, -0.06880905f, -0.06125337f, 0.03140758f, -0.12495334f, -0.10856330f, -0.04349315f, 0.05953123f, 0.07014320f, -0.09472017f, 0.00126836f, 0.09178867f, 0.03445103f, -0.03438823f, -0.03778182f, 0.06619560f, -0.13980445f, 0.04944740f, -0.01326350f, 0.22684208f, 0.20393845f, 0.10963823f, -0.01304227f, 0.24259536f, 0.08779462f, -0.22077511f, 0.14610979f, -0.03448648f, -0.07142977f, 0.03065187f, 0.03846655f, -0.15467924f, 0.03905653f, 0.03513623f, 0.13435610f, 0.03638973f, 0.08039200f, 0.03504686f, 0.04091353f, 0.16757762f, -0.08011085f, -0.13032460f, -0.11607674f, -0.08154020f, -0.08637200f, 0.15456937f, 0.01619339f, -0.02160073f, 0.10755118f, -0.17380980f, 0.07608761f, -0.04021086f, -0.02718686f, 0.01363258f, -0.03498718f, 0.08303937f, 0.10250997f, -0.01347448f, -0.02641078f, 0.13757032f, -0.12314556f, -0.08932201f, 0.07661976f, 0.06708132f, -0.05885964f, -0.06657114f, -0.07810186f, -0.07483679f, -0.23562054f, 0.24276827f, 0.19455878f, 0.04180004f, 0.01627879f, 0.11527011f, 0.14155510f, 0.07301230f, -0.05003888f, -0.07280133f, -0.08050231f, 0.21153802f, 0.01503196f, -0.06858560f, 0.14565313f, 0.06189204f, 0.18905604f, -0.03141373f, -0.04177547f, 0.16892500f, -0.05732509f, 0.07897083f, 0.03748576f, -0.07548306f, 0.20101169f, 0.00092767f, -0.11928798f, -0.05282291f, -0.01709013f, -0.28589180f, -0.07230836f, 0.09408459f, -0.13147159f, -0.17223684f, -0.00898565f, 0.27390289f, 0.17622213f, -0.24528809f, 0.04997633f, 0.15652831f, 0.10255399f, 0.06444287f, 0.12886332f, 0.03569566f, -0.12007760f, -0.13094848f, -0.02238112f, -0.09228534f, 0.20728931f, -0.00122613f, -0.02026493f, 0.07672448f, 0.04564558f, 0.09801143f, 0.05069185f, 0.04579593f, -0.06214650f, -0.23715757f, 0.12045877f, -0.02449283f, -0.11488502f, -0.04966160f, -0.04317230f, 0.00248301f, -0.15913393f, -0.00801553f, -0.18606392f, -0.04152522f, -0.03310378f, -0.02179342f, 0.09521867f, -0.03645971f, 0.14221288f, -0.07446294f, 0.11765610f, -0.05411125f, -0.00201681f, -0.04556962f, -0.00093153f, 0.12987435f, 0.11380105f, -0.04536911f, 0.00193039f, 0.13463140f, 0.11030716f, -0.05738885f, 0.16729715f, 0.09716781f, -0.03620931f, 0.17219682f, 0.04882280f, -0.08111427f, 0.01796235f, 0.01542156f, -0.00600761f, -0.06525324f, 0.13248718f, 0.10274854f, 0.03965178f, 0.17588177f, 0.01178144f, -0.14607008f, -0.15444022f, -0.07597760f, -0.10768790f, 0.16229150f, -0.03312396f, -0.03886155f, 0.04979559f, -0.17490450f, 0.02412207f, 0.06745694f, -0.00816280f, -0.02488223f, -0.11756901f, 0.09909942f, 0.06336753f, 0.08257786f, -0.05131381f, 0.15629998f, -0.15243240f, -0.18143541f, 0.11147220f, 0.15960386f, -0.11411371f, 0.02807955f, -0.05111375f, 0.07402863f, -0.27956945f, 0.10699379f, 0.32693204f, 0.13587020f, 0.03448091f, 0.15090424f, 0.07402905f, 0.03540061f, -0.06631200f, -0.16159335f, 0.05785733f, 0.09548787f, 0.02526337f, -0.10946224f, 0.19700408f, -0.03800875f, 0.12106947f, -0.06619141f, 0.03414067f, 0.14038569f, 0.03239669f, -0.09340108f, -0.04513950f, -0.12049566f, 0.14139608f, 0.05820685f, -0.08714760f, -0.04567755f, -0.05096474f, -0.20058393f, -0.07931165f, 0.05781262f, -0.04967439f, -0.18728560f, 0.01010014f, 0.20391524f, 0.14941266f, -0.21110812f, -0.06812731f, 0.11698215f, 0.15150531f, 0.00487215f, 0.13854454f, 0.07615168f, -0.10529680f, -0.04237023f, -0.09150203f, -0.09322923f, 0.16452387f, 0.07246263f, 0.02581926f, 0.02589346f, 0.05749866f, 0.14695641f, -0.12259901f, -0.01770364f, 0.07001115f, -0.23605178f, 0.02098267f, 0.00144866f, -0.01358392f, -0.22544788f, 0.13357343f, 0.01427626f, -0.02345949f, -0.07856464f, -0.08874866f, -0.02560101f, -0.09544683f, 0.03222826f, -0.00843936f, 0.03122137f, -0.01579687f, -0.00999726f, 0.02242516f, 0.07435311f, 0.10618403f, 0.09547694f, -0.05806127f, -0.02699351f, 0.04200638f, 0.07361447f, 0.01655982f, 0.04814556f, 0.02402889f, 0.05655086f, 0.09724916f, -0.03466637f, -0.00643893f, 0.14292058f, -0.12979206f, 0.03177741f, 0.01005616f, 0.13428113f, -0.08436243f, -0.17669331f, -0.02272572f, -0.06328855f, 0.06138829f, 0.21975555f, -0.05684272f, 0.06622308f, -0.03844244f, 0.05601370f, -0.11791008f, 0.01602273f, -0.07460085f, 0.01423939f, -0.01382181f, -0.13136029f, -0.02484003f, -0.05521510f, -0.06569221f, -0.00242915f, 0.00059668f, 0.05875354f, 0.04129531f, 0.03281481f, -0.08993892f, 0.06036019f, -0.10841981f, 0.04373037f, -0.00508214f, 0.14245510f, 0.04025069f, 0.05640109f, 0.03217998f, 0.21277906f, -0.20625359f, 0.06253300f, 0.31082270f, 0.19286506f, 0.00885849f, -0.06530622f, 0.00179846f, 0.08663644f, 0.07258122f, 0.01908967f, 0.02037704f, -0.06587576f, 0.04292047f, -0.04160954f, 0.19135611f, 0.08097342f, 0.03920825f, 0.04033332f, 0.09782197f, -0.02098727f, 0.01043399f, -0.00020694f, -0.10824626f, 0.02310151f, 0.05633504f, -0.06916934f, 0.04059695f, -0.07451219f, -0.03298808f, -0.07168473f, -0.04961326f, -0.07628329f, 0.12828998f, 0.04551571f, 0.05783023f, 0.08914679f, -0.05374844f, -0.04656989f, -0.17802766f, 0.06956362f, 0.12899791f, 0.00155359f, -0.07115320f, 0.01599044f, -0.01133415f, -0.00375302f, 0.02343939f, 0.03115184f, 0.09584963f, -0.01299923f, 0.07315420f, 0.02422047f, 0.03545381f, -0.00688939f, -0.01290564f, 0.00388931f, 0.03238523f, 0.00566379f, 0.00792674f, -0.01377191f, -0.02128666f, -0.24871439f, 0.26857036f, -0.04185775f, -0.01326541f, -0.05872242f, 0.07332705f, -0.16700731f, -0.04079364f, 0.09430146f, 0.08902940f, 0.12134313f, 0.04952129f, -0.13576031f, 0.02306969f, -0.03725402f, 0.13369721f, 0.12632449f, 0.05869986f, 0.07934831f, 0.12311797f, -0.09417818f, 0.07964092f, -0.03835937f, 0.15729326f, 0.06315513f, 0.12528838f, -0.06124334f, -0.05392640f, 0.12124339f, -0.12828395f, 0.03231240f, -0.05263399f, 0.13882761f, -0.05168580f, -0.12691170f, 0.19242907f, 0.05981104f, 0.01947372f, 0.19693427f, 0.03828536f, -0.06344448f, -0.15188514f, -0.09568360f, -0.05960401f, -0.04644407f, -0.09460222f, -0.00655179f, -0.07570527f, -0.06739370f, 0.10170827f, -0.00464657f, -0.07026473f, 0.05666454f, -0.06493670f, 0.09485266f, 0.04222143f, -0.05226316f, -0.12795365f, -0.03217728f, -0.04829733f, -0.04530269f, 0.05301737f, 0.12512583f, -0.14066499f, 0.04171371f, 0.01283254f, 0.12517840f, -0.14945893f, 0.11530252f, 0.28725469f, 0.04715914f, 0.02768750f, 0.13472995f, 0.17119968f, 0.17464218f, 0.00515733f, -0.01198370f, -0.06202324f, -0.07538796f, 0.03947141f, -0.13954833f, 0.13216317f, 0.03362424f, 0.09594250f, -0.04240624f, -0.01785679f, 0.04591455f, 0.05533615f, 0.06804989f, -0.12903531f, -0.09318455f, 0.04413738f, 0.01634201f, -0.07156521f, 0.00951603f, -0.03624974f, -0.03257328f, -0.07557375f, -0.10933069f, 0.24899299f, -0.00281097f, 0.09972168f, 0.10966837f, -0.05973350f, 0.00882332f, -0.06449721f, 0.02780597f, 0.01765604f, 0.04949603f, -0.00610567f, -0.08587777f, -0.13895798f, 0.03032102f, -0.24845825f, 0.02616279f, 0.18975009f, -0.01533046f, 0.25182253f, -0.04133299f, 0.12168333f, 0.11584742f, -0.02924212f, 0.04392847f, 0.00259535f, -0.04931578f, 0.04146855f, 0.17865801f, 0.12051544f, -0.16060932f, 0.06173986f, -0.01991846f, 0.01544208f, -0.12929186f, -0.02811957f, -0.09499482f, -0.19872822f, 0.07012438f, -0.00115906f, 0.04161340f, 0.17086965f, -0.08288249f, 0.03158749f, 0.03997578f, 0.06823030f, 0.17047681f, -0.04353754f, 0.08340365f, 0.07523391f, -0.04276364f, 0.01402475f, -0.01506534f, 0.14535561f, 0.20907496f, 0.10104923f, -0.00348366f, -0.04729127f, 0.17590053f, -0.07684506f, 0.03406164f, -0.05789674f, 0.06093959f, 0.05523878f, -0.07331526f, 0.18453780f, -0.02719071f, -0.01344039f, 0.13193010f, 0.06448124f, -0.01326961f, -0.18082446f, -0.05295171f, -0.17520843f, -0.08926049f, -0.00022260f, -0.10779395f, -0.08589157f, -0.16927350f, 0.12241185f, 0.04260500f, 0.04876912f, 0.02891538f, -0.05171708f, 0.11945769f, 0.11026867f, 0.00593436f, -0.03142133f, -0.08574724f, -0.04974329f, -0.19585034f, 0.00898233f, 0.22795057f, -0.06996879f, -0.00753379f, -0.00177490f, 0.00345875f, -0.09053959f, -0.01482498f, 0.28274146f, 0.05564262f, 0.08584070f, 0.06553721f, 0.16364738f, 0.05368824f, -0.02998304f, -0.13197385f, 0.00810624f, -0.04929365f, 0.01470327f, -0.18330182f, 0.14944583f, -0.03956193f, -0.00378639f, 0.04118844f, -0.04318950f, 0.01314245f, 0.08274570f, -0.03297431f, -0.10464119f, -0.09473751f, 0.07399413f, 0.03563683f, -0.03090671f, -0.14359447f, -0.12509477f, -0.04268228f, -0.02666778f, -0.10402442f, 0.15164049f, -0.06159936f, 0.08435158f, 0.12317142f, -0.06755153f, -0.02093028f, -0.13155270f, 0.00931394f, 0.09024291f, 0.08603071f, -0.10090342f, -0.03501115f, -0.07730792f, -0.01924250f, -0.18692337f, -0.02550138f, 0.11438656f, -0.01739447f, 0.21138209f, 0.11130113f, 0.02868331f, 0.10110747f, -0.13636813f, 0.06654996f, -0.00798817f, 0.03790351f, -0.05756365f, 0.03727355f, 0.10775494f, -0.14066242f, 0.08406667f, -0.01256688f, -0.02427155f, -0.14520586f, 0.14782222f, -0.16906959f, -0.10772915f, 0.16824666f, 0.08026977f, 0.04382797f, 0.12275384f, -0.07020010f, 0.01537673f, 0.03177311f, 0.03917686f, 0.12044252f, -0.01478359f, 0.09055879f, 0.09897976f, -0.07124845f, 0.01164488f, 0.01158413f, -0.04334142f, 0.12396456f, 0.14409682f, 0.05023697f, -0.07380593f, 0.10599371f, -0.14991553f, 0.01945227f, 0.00954354f, 0.10020568f, -0.01619614f, -0.15377983f, 0.10096860f, -0.07318819f, 0.01854952f, 0.03381474f, 0.06694499f, -0.10588041f, -0.19676061f, -0.04962159f, -0.10266566f, -0.04232185f, -0.06803881f, -0.07400329f, 0.01861722f, -0.14607039f, 0.09183495f, 0.02554557f, -0.01392727f, 0.02848688f, 0.05224147f, 0.09148620f, 0.10085823f, -0.01253866f, -0.01419704f, -0.05609113f, -0.12315206f, -0.11253223f, 0.05469316f, 0.08830290f, 0.00005355f, 0.11610232f, -0.08379190f, 0.04813289f, -0.10532786f, 0.08701535f, 0.25914195f, 0.15330315f, -0.03461949f, 0.00394922f, 0.16733095f, 0.11544155f, -0.05350065f, 0.02027906f, -0.05789995f, -0.12919733f, 0.04601744f, 0.01061376f, 0.08201554f, 0.00767758f, 0.07727851f, -0.07277667f, -0.09976774f, 0.13803637f, -0.01444761f, -0.07408600f, -0.11124070f, -0.01165351f, 0.15389596f, 0.11805303f, 0.07348281f, -0.04308854f, -0.02716362f, 0.02304879f, -0.05423886f, -0.17607442f, 0.16944022f, 0.01995364f, -0.05032530f, 0.14481515f, -0.08769086f, -0.07719643f, -0.15584162f, 0.03765053f, -0.01947615f, 0.04366336f, 0.05352522f, 0.01696503f, 0.04076485f, 0.02907463f, -0.15385525f, -0.07167948f, 0.08491115f, 0.01292377f, 0.15130673f, -0.05695889f, -0.00446699f, 0.09667680f, -0.02018457f, 0.02970241f, -0.05559285f, -0.09765419f, 0.02655454f, 0.05519018f, 0.00240086f, -0.17051898f, 0.03504125f, -0.05669202f, 0.01961280f, -0.01687000f, 0.08969823f, -0.11048879f, -0.05588787f, 0.06280231f, -0.00045923f, 0.07142557f, 0.07892723f, 0.00552649f, -0.06916442f, 0.07128121f, 0.00034939f, 0.14071585f, 0.02926923f, 0.08636871f, 0.01677461f, -0.02607984f, 0.06738575f, -0.03112072f, 0.06812414f, 0.12935802f, 0.00424932f, -0.08255271f, -0.08403120f, 0.05378916f, -0.09646910f, -0.06872591f, -0.08815636f, 0.01681085f, -0.01830838f, -0.13108781f, 0.12832335f, -0.04666761f, 0.02206811f, 0.06421780f, 0.07510202f, -0.04343820f, -0.05841178f, -0.10189477f, -0.02458737f, -0.03547054f, -0.04362589f, -0.02255640f, 0.03465039f, -0.12686670f, 0.02566048f, 0.01534740f, 0.05860611f, 0.00638319f, -0.06344388f, 0.05908124f, 0.02928162f, -0.02485087f, 0.01316684f, 0.03162773f, -0.11610720f, -0.00855094f, -0.03530057f, 0.10535073f, -0.02189079f, 0.08016911f, 0.00412778f, -0.05881007f, -0.09292546f, 0.09166875f, 0.02501857f, 0.01106898f, -0.00740140f, 0.01310443f, 0.10897947f, 0.02014466f, 0.07291013f, -0.03655858f, -0.07231979f, 0.06281144f, -0.05275863f, -0.09400390f, 0.10646268f, -0.04004132f, 0.09555867f, 0.03151980f, 0.00605135f, 0.06348792f, 0.09939162f, -0.00574437f, -0.10442997f, -0.01207380f, -0.01879655f, 0.14199176f, -0.01873869f, 0.01254882f, -0.01440933f, 0.03033932f, 0.04177829f, -0.02460972f, 0.10730854f, -0.06615070f, -0.06108283f, 0.09508963f, -0.03818887f, -0.03087912f, -0.02248045f, 0.15753520f, 0.07697983f, 0.02471335f, 0.12234885f, 0.01661702f, 0.02666567f, -0.10935151f, 0.07749239f, -0.11242062f, 0.11072759f, 0.02788351f, 0.05819644f, -0.02800262f, 0.02331345f, 0.07971466f, 0.02991355f, 0.04028886f, -0.06371650f, 0.06428134f, 0.07124730f, 0.07642434f, 0.01984151f, -0.04709107f, 0.08250742f, -0.01734035f, -0.01314910f, -0.12461447f, -0.07078133f, -0.07333830f, 0.03904968f, 0.10015194f, 0.06775781f, 0.05054668f, -0.00533489f, -0.07196215f, 0.03107660f, 0.06937740f, 0.01793469f, 0.09983250f, 0.00348109f, 0.08093436f, 0.09661361f, -0.03702309f, -0.02629327f, 0.04452506f, -0.04335165f, 0.03269663f, -0.02281325f, -0.05939546f, -0.07438742f, 0.10231163f, 0.07439881f, -0.08368882f, -0.06753114f, 0.10392866f, -0.01886933f, -0.04338849f, -0.00375020f, 0.06350680f, -0.02014944f, 0.05770924f, -0.05117866f, 0.03375892f, 0.03395507f, -0.07706203f, -0.10726333f, 0.06354881f, 0.02971044f, -0.11107460f, 0.00955985f, -0.05491548f, -0.05403792f, -0.00833024f, 0.07035395f, -0.00456707f, -0.05242588f, -0.05308966f, 0.03446371f, 0.01488055f, -0.04116984f, -0.09127033f, 0.03486485f, -0.01544300f, -0.04494838f, 0.02713995f, -0.08317534f, 0.02405228f, 0.03928929f, 0.02996168f, -0.06378013f, 0.03738415f, 0.09766736f, -0.02324914f, 0.03883849f, 0.06563524f, 0.01516552f, 0.01653251f, -0.04905332f, -0.05977932f, -0.06597443f, 0.01686238f, 0.05082216f, -0.00687695f, 0.02969629f, -0.03871189f, 0.11396088f, -0.07087458f, 0.07117826f, 0.02618099f, 0.09511922f, 0.00344165f, -0.01038368f, 0.02917504f, 0.04196287f, 0.07285769f, -0.10210033f, -0.06835531f, -0.00465489f, -0.00993067f, -0.04743590f, -0.03189553f, -0.02587431f, 0.03925139f, -0.06902537f, -0.04422515f, -0.07904586f, 0.00484864f, 0.01670596f, 0.06951624f, 0.02843615f, 0.02877384f, 0.05490743f, 0.02405398f, 0.05177462f, -0.08170798f, -0.02459741f, 0.00399406f, 0.07002627f, -0.05834166f, -0.00849541f, 0.01420593f, 0.05240855f, -0.05203838f, -0.08987058f, 0.00424471f, 0.03998666f, -0.06257419f, 0.07099239f, 0.06528510f, 0.02017464f, -0.03514362f, 0.10374027f, 0.03965148f, 0.01831631f, -0.05446064f, -0.05683997f, 0.04265136f, 0.01744028f, 0.03318150f, -0.04580209f, 0.05190980f, -0.00609816f, 0.04457175f, 0.04514617f, 0.06085593f, 0.04551191f, 0.04895138f, -0.05542366f, 0.04308051f, -0.06928410f, 0.04855821f, -0.01078143f, -0.04580590f, 0.06507591f, -0.07646791f, -0.01410633f, -0.02519291f, -0.01704220f, 0.02722628f, 0.03811159f, -0.07084490f, 0.03216050f, -0.02910182f, -0.05653701f, -0.07694708f, -0.03988629f, -0.07832321f, -0.05573631f, 0.02794127f, -0.03325986f, -0.04670903f, 0.07702420f, -0.02984559f, -0.02823007f, 0.01605980f, -0.06127682f, -0.07221356f, 0.05390615f, -0.07607287f, 0.04435147f, 0.01199152f, 0.02253155f, -0.07773546f, 0.06752092f, 0.01898071f, -0.02640894f, -0.04115057f, -0.07499878f, -0.06768873f, -0.00335790f, -0.01383346f, 0.01093602f, -0.00120427f, -0.07475274f, 0.03470583f, -0.02001783f, 0.06218546f, 0.03418490f, -0.00086176f, -0.04923661f, -0.04860633f, 0.07207916f, 0.00648081f, -0.01793333f, 0.00650708f, 0.00629110f, 0.06216092f, 0.01643653f, -0.00767738f, 0.06625708f, -0.05158495f, 0.05085113f, 0.00886982f, 0.07368702f, -0.04191528f, 0.07248081f, 0.07012483f, -0.05212376f, 0.03580631f, -0.01567218f, -0.00082174f, 0.04103962f, -0.04642952f, -0.03399808f, -0.01045346f, 0.00030166f, 0.07375220f, -0.05987035f, 0.03871367f, 0.07080647f, -0.02114904f, -0.07361288f, -0.02151291f, 0.04870447f, 0.07075820f, -0.04634820f, 0.05373003f, 0.00604339f, -0.05923567f, -0.01142485f, 0.04328246f, 0.06083123f, -0.06382337f, 0.03091273f, -0.02755238f, 0.05598975f, -0.04493194f, 0.04965087f, 0.07130093f, 0.00935873f, 0.01514932f, 0.05113509f, -0.00431897f, -0.03163812f, -0.06974636f, 0.01596268f, 0.02393702f, -0.03697887f, -0.03941824f, 0.02811921f, 0.04780088f, -0.01028531f, -0.05548100f, 0.04069262f, 0.03527319f, 0.02070797f, -0.06360765f, 0.03027645f, -0.01095557f, -0.05867095f, 0.03949666f, 0.03795880f, -0.04852641f, -0.02359058f, -0.00341976f, 0.00221743f, -0.00898382f, -0.06045243f, -0.06988245f, 0.05232281f, -0.06114517f, 0.00331072f, -0.04470178f, 0.00347617f, 0.07527905f, 0.05558527f, -0.05863133f, -0.04315765f, 0.06790555f, -0.05492110f, -0.01214869f, 0.05615299f, 0.02716306f, 0.07759895f, -0.01682798f, -0.04769747f, -0.01578005f, -0.02803963f, -0.06866980f, -0.07292554f, 0.07522661f, -0.00888496f, 0.04862832f, -0.04634673f, -0.00771869f, -0.00636027f, -0.00783118f, 0.07030221f, -0.04941928f, -0.06890203f, 0.07260527f, -0.06894622f, -0.08080470f, 0.03569444f, -0.05742050f, 0.03834204f, 0.00078908f, 0.00562981f, 0.07346211f, -0.06108337f, 0.07134878f, -0.03764867f, -0.05535333f, -0.04884172f, -0.00852005f, 0.03000171f, -0.06883617f, -0.00876582f, 0.04881797f, 0.06866562f, 0.00056551f, -0.03358017f, 0.04905938f, 0.04450006f, -0.04692810f, 0.05999622f, -0.04126346f, -0.00799583f, 0.01281377f, 0.02509183f, -0.06377220f, 0.07438453f, -0.03293908f, 0.05242715f, 0.05772906f, -0.01320706f, 0.05611350f, 0.03867535f, 0.06999504f, 0.03813401f, 0.00782374f, 0.05654482f, 0.01321732f, -0.06401287f, 0.01644332f, 0.02004857f, 0.01307285f, 0.06746123f, -0.04862395f, -0.00915377f, -0.05822545f, 0.03133002f, 0.04412662f, 0.07429536f, 0.07109199f, 0.06378683f, 0.02733055f, 0.07335719f, -0.06900375f, 0.06989846f, -0.03601863f, 0.05789635f, 0.00598310f, -0.06838010f, 0.04130154f, -0.04216865f, 0.04844167f, -0.01807241f, -0.06303325f, 0.03884891f, -0.03943520f, 0.02681002f, 0.06612242f, -0.06911402f, 0.06200018f, 0.00138957f, -0.01880528f, 0.05979758f, 0.04287765f, -0.05109463f, -0.01881470f, -0.07104304f, 0.07747702f, -0.04730630f, 0.07732952f, 0.04282391f, 0.06131866f, 0.02670735f, 0.03495120f, -0.01025806f, 0.08048458f, -0.00548995f, -0.01589299f, 0.07950536f, -0.02962417f, -0.00279742f, 0.07806057f, -0.06113999f, 0.00782783f, 0.02149852f, -0.00231899f, -0.00969928f, -0.07154977f, 0.06547894f, 0.01132942f, -0.04055290f, -0.04587729f, -0.04098710f, -0.07319096f, 0.07323722f, -0.01651303f, 0.00961889f, -0.04796022f, -0.07759305f, 0.00458925f, -0.07165420f, -0.02762049f, -0.00268133f, -0.05818177f, -0.06180718f, 0.04033627f, -0.06522927f, -0.01990340f, 0.03593747f, -0.07380118f, 0.03654436f, 0.07497045f, 0.07853947f, -0.06524141f, -0.02268647f, -0.07832551f, -0.06613211f, -0.01147336f, -0.04090106f, 0.01408917f, 0.04183186f, -0.00733718f, -0.04534249f, 0.04765403f, 0.01988573f, -0.01367056f, 0.08096661f, -0.01974235f, -0.05383353f, 0.08085342f, -0.01429711f, 0.06423160f, -0.00460524f, 0.00564444f, 0.05282529f, 0.02720129f, -0.02846667f, -0.07690987f, -0.04713084f, -0.07213845f, 0.01307747f, -0.04271422f, -0.06567049f, 0.03001393f, -0.00803965f, -0.02686631f, 0.04394785f, -0.06408962f, 0.07483751f, -0.02952063f, -0.06055847f, -0.03984796f, -0.02904500f, -0.02956563f, -0.04810545f, 0.01406121f, 0.00367337f, -0.02810480f, 0.07950377f, -0.06698766f, 0.02539272f, -0.05155577f, 0.01196279f, 0.03902718f, 0.06423377f, 0.06941725f, 0.04101839f, 0.00226600f, 0.01221972f, 0.07867325f, 0.04597866f, -0.03390851f, 0.03120644f, 0.02268910f, -0.05025339f, -0.05502255f, -0.07809775f, -0.00631842f, 0.05384188f, 0.08050271f, 0.02524336f, 0.03728846f, 0.06314891f, -0.03257546f, -0.07045552f, 0.01000645f, -0.07494009f, 0.00440799f, -0.02714355f, 0.04886379f, -0.00727797f, -0.04225759f, 0.03180972f, -0.06775036f, -0.01927011f, 0.07179178f, -0.07564623f, 0.02819990f, 0.07741276f, 0.01130529f, -0.00552892f, 0.01675074f, -0.05061287f, 0.04138334f, 0.04377557f, -0.05247059f, 0.06819468f, 0.04063721f, -0.03132031f, 0.03302249f, 0.05200190f, -0.03767857f, 0.02048769f, 0.03928458f, 0.08083034f, 0.03081365f, -0.05625668f, 0.04152638f, -0.00533842f, -0.06968951f, 0.05979193f, -0.02886255f, -0.02621794f, 0.05933135f, -0.04026327f, -0.04094210f, 0.03483733f, -0.01672778f, 0.06185915f, -0.06097983f, 0.03074629f, -0.05265794f, -0.06967367f, -0.01999083f, 0.00145908f, 0.04203332f, 0.06945000f, 0.05336782f, 0.01234211f, -0.02185017f, 0.06205586f, 0.05728216f, 0.07974703f, -0.00257588f, 0.01895596f, -0.04026789f, -0.04966694f, 0.02550967f, -0.03572138f, 0.05967581f, 0.01404353f, 0.03286383f, -0.07577353f, -0.02131013f, -0.00349176f, 0.00282676f, -0.02891511f, 0.04891232f, 0.04678953f, 0.04828563f, 0.02179440f, 0.01183102f, -0.01748741f, 0.03164208f, -0.00050185f, 0.07207128f, 0.01842495f, 0.03972857f, 0.07591934f, -0.02156273f, 0.06531239f, -0.06447753f, -0.00589871f, 0.06892013f, -0.07112102f, 0.02315479f, 0.01897091f, 0.07340934f, 0.06616775f, 0.07611535f, 0.02202963f, -0.07779680f, -0.06089164f, -0.07318959f, 0.01778156f, 0.00112721f, -0.05629145f, 0.05560469f, 0.00228962f, -0.03811453f, -0.01634900f, 0.01435672f, 0.04677574f, -0.07045076f, -0.03124319f, 0.00360354f, 0.00946103f, -0.03937959f, -0.06410186f, -0.05668698f, -0.01622673f, 0.04860143f, -0.07537562f, -0.05744049f, -0.05209015f, 0.01113635f, -0.05863400f, 0.02412917f, 0.04007203f, -0.08101755f, -0.03495049f, 0.01582295f, -0.00466929f, 0.04563228f, 0.02860782f, 0.07539371f, -0.06042368f, -0.04476845f, -0.06080393f, -0.06355074f, 0.00422323f, 0.02108480f, -0.06322129f, -0.05573928f, 0.05701362f, -0.05307522f, -0.01378208f, 0.06068801f, 0.03391065f, -0.00007404f, 0.07288650f, 0.07753351f, 0.04686873f, -0.01313040f, -0.07142416f, 0.00849870f, -0.06670959f, -0.06666867f, 0.04857516f, -0.06737737f, -0.02766783f, 0.07340244f, 0.02725366f, -0.00975107f, -0.02828648f, 0.01320332f, -0.00301049f, 0.05690370f, 0.08092517f, 0.04236041f, 0.00422467f, -0.05860920f, 0.02692235f, 0.01187737f, 0.04700663f, -0.03418381f, 0.06725580f, -0.03898853f, 0.06761291f, -0.03605755f, 0.02429732f, 0.07451152f, 0.06091025f, -0.00966186f, -0.04642192f, 0.00897320f, 0.01092999f, -0.06440783f, -0.07851417f, 0.03895915f, -0.05713531f, -0.05216145f, 0.04248843f, -0.01015582f, 0.07012337f, -0.04784044f, -0.03623922f, 0.05345679f, -0.05704924f, -0.04838052f, 0.02909759f, -0.03086025f, 0.01757382f, 0.06168898f, 0.03982911f, 0.04042304f, -0.00990371f, 0.03802858f, 0.06605992f, -0.03870412f, 0.03445642f, -0.02777670f, 0.04879821f, -0.06347857f, -0.01514634f, 0.01550729f, 0.03285763f, 0.01744676f, -0.03129295f, -0.00222035f, -0.05801020f, 0.07144607f, -0.07015287f, -0.04468002f, -0.03572153f, -0.07862856f, 0.01951687f, 0.04015612f, -0.05075791f, -0.02572537f, 0.00803094f, -0.03742646f, 0.06662970f, -0.06659372f, -0.06409863f, 0.04171503f, 0.05905164f, 0.05137003f, -0.02733441f, -0.06101959f, -0.00205117f, 0.00823709f, -0.03736444f, 0.07114375f, -0.01630652f, 0.05140401f, 0.07548939f, 0.05067229f, 0.08022115f, 0.04263590f, -0.01389507f, -0.03358206f, -0.02356486f, 0.03651247f, -0.05240360f, -0.01303326f, -0.01546431f, 0.05715384f, -0.02203779f, -0.01365837f, -0.07250352f, -0.07577835f, -0.04488765f, -0.02466840f, -0.05166879f, 0.01711683f, 0.01193947f, -0.05649886f, -0.05081455f, 0.03694851f, -0.01134777f, 0.05379569f, 0.05428075f, 0.06185067f, -0.00930820f, -0.07244247f, -0.05671065f, -0.01634748f, -0.05016015f, 0.02721409f, 0.07237522f, -0.08082443f, -0.04858765f, -0.01378608f, -0.06727775f, 0.06301572f, -0.01520161f, 0.04262647f, -0.06874155f, -0.00832949f, -0.02394907f, 0.01526307f, 0.03889406f, -0.02793965f, -0.02398013f, -0.06022034f, 0.01953104f, -0.05148186f, -0.01567601f, -0.03515979f, 0.02620784f, 0.07878853f, -0.04726725f, -0.05629629f, -0.01023785f, 0.00471643f, 0.07068241f, 0.06769190f, -0.03746513f, -0.04972467f, -0.06800497f, -0.00166951f, 0.05376134f, -0.04726431f, -0.03969368f, -0.05781015f, -0.03911510f, 0.03413065f, 0.02987711f, 0.07526443f, -0.03255427f, 0.02538478f, 0.03460260f, -0.05867460f, 0.01607890f, 0.02144846f, -0.07863384f, 0.00811822f, 0.03174869f, -0.04688482f, 0.03336895f, 0.03014379f, -0.04136298f, -0.06365824f, -0.04078579f, 0.04198095f, 0.02137329f, 0.05587321f, 0.02762438f, -0.01031610f, 0.06623819f, -0.01311637f, 0.02225896f, -0.01463675f, 